encog,BasicNetwork,java,3.4.0,1,1684019505607
[BASIC]
[BASIC:PARAMS]
[BASIC:NETWORK]
beginTraining=0
connectionLimit=0
contextTargetOffset=0,0,0,0,0,0,0
contextTargetSize=0,0,0,0,0,0,0
endTraining=6
hasContext=f
inputCount=17
layerCounts=4,16,31,61,129,257,18
layerFeedCounts=4,15,30,60,128,256,17
layerContextCount=0,0,0,0,0,0,0
layerIndex=0,4,20,51,112,241,498
output=0.0000042991,0.0002830635,0.999712637,0.0000000003,0.0000249702,0.4354969251,0.9746231851,0.9999148793,0.5528281214,0.9999855437,0.0000012439,0.4890842627,0.9873734765,0.000000577,0.7998749347,0.0004765943,0.9839262577,0.8990682248,0.0150977719,1,0.265108868,0.6621084829,0.0216640319,0.0079168548,0.025845349,0.7997025844,0.0065791934,0.1531072858,0.8849643078,0.0064745987,0.9609171742,0.7401422962,0.7543551794,0.026985132,0.0404693566,0.9741601233,0.1090110875,0.2662411614,0.9581560517,0.0367865384,0.6750082276,0.8392590018,0.8728185969,0.5330095614,0.0396764393,0.5584682477,0.0001331831,0.6772413627,0.9995115634,0.0123519517,1,0.3718982585,0.1652044011,0.0150727297,0.0000224169,0.9999732628,0.0444005216,0.000561422,0.0134978654,0.991730015,0.2174955923,0.0000008441,0.9955596224,0.9770778321,0.24918927,0.6638851763,0.9842138771,0.1396090066,0.0779595952,0.0000000692,0.0003113052,0.0030177563,0.0082502318,0.99999939,0.9622317236,0.9996455224,0.0000343284,0.999999999,0.9991389677,0.0003127677,0.0000322702,0.9999983803,0.2594146995,0.0000004996,0.7555244849,0.9999999857,0.068181775,0.8909430196,0.922390018,0.9999885919,0.7670982657,0.9979281782,0.0000052933,0.0000156522,0.000087967,0.0023415139,0.0000033258,0.3518769209,0.9999999853,0.001367305,0.0012783681,0.9999850434,0.0013409029,0.9999971935,0.4991810712,0.9109667747,0.9872109037,0.9838917302,0.8303628483,0.480428861,0.0623563145,1,0.1542758714,0.9959310809,0.9952476176,0.0250643013,0.2789327819,0.0004148682,0.9713866268,0.9999999996,0.1919160298,0.2127560055,0.0929965961,0.5980724829,0.2090911972,0.370454341,0.9657183923,0.6474992808,0.0569141276,0.0162653831,0.7250676303,0.0104703086,0.2071586861,0.9999999995,0.840595126,0.0588684821,0.3469765772,0.1975155152,0.991966958,0.0000000369,0.2611182994,0.6249723148,0.2625514962,0.2803992124,0.9999997359,0.2142123116,0.3791362858,0.9999178998,0.9794028973,0.002297786,0.0004266999,0.0541568493,0.0046406838,0.2467895656,0.1932234286,0.996316109,0.9933521019,0.0892232265,0.9999999367,0.9999998806,0.0193218449,0.0356298089,0.0209171191,0.0133970806,0.9338501088,0.7774680967,0.5492628348,0.2307660213,0.0446986651,0.9092408798,0.3456329849,0.0011800727,0.1431508144,0.8867750624,0.9400101904,0.097157112,0.9964514771,0.3206527207,0.8449689675,0.1119527681,0.004101046,0.064162556,0.6272480686,0.0000000453,0.1273690013,0.9759218513,0.2876478501,0.8532604425,0.2504369568,0.1177474993,0.1015236795,0.997941839,0.5253609313,0.0427008259,0.2900687366,0.2609772807,0.9493749826,0.0386204095,0.8974676679,0.2114253552,0.9666783589,0.9999931775,0.999993684,0.0024895867,0.0000000044,0.4586804015,0.9934823546,0.9572570783,0.9987538551,0.684085406,0.0095473916,0.4140352883,0.0750615181,0.183131016,0.938468838,0.1893927828,0.9644548605,0.0546322797,0.9999991966,0.5004148815,0.5729236788,0.3451623696,0.9964766182,0.0087645588,0.9977630751,0.9991139986,0.1330650041,0.0205209169,0.7911147093,0.1811453013,0.0014252253,0.0854739763,0.0333649642,0.8588766336,0.971931008,0.9988909335,0.9710943255,0.1764645599,0.9999972857,0.9999999996,1,0.4298809248,0.3255668721,0.2673706718,0.2853743788,0.593130186,0.3898764089,0.2789979628,0.3082814784,0.3205103555,0.2458473016,0.4522257706,0.3146060535,0.0237127395,0.2520703384,0.2949716315,0.2569709632,0.5949154196,0.4797831125,0.4646709987,0.2697952769,0.227077737,0.3709223654,0.3992652693,0.4489322394,0.3979653438,0.1843978846,0.3970505343,0.4352403788,0.3646771173,0.5355960616,0.1224062348,0.4133769453,0.2687362242,0.5015170655,0.2788491335,0.4985429766,0.4108191975,0.482238237,0.2656725759,0.2578265968,0.4929101707,0.2202120924,0.3200932262,0.1942209827,0.4062346125,0.3292854632,0.3913200899,0.5975572995,0.3896225692,0.2116088748,0.4587655273,0.3837297779,0.267856432,0.3565506967,0.3387484991,0.3892215965,0.4681959999,0.5123052614,0.2923873233,0.3785505532,0.8673535104,0.2934738397,0.5561121447,0.3867742655,0.4635481722,0.3233991359,0.3849839703,0.3544270458,0.4212676369,0.3437179394,0.5238767851,0.6567944948,0.3765828523,0.4478343636,0.2633664593,0.2958367258,0.2891670262,0.5872250027,0.398603596,0.4180276826,0.5416265961,0.4815885509,0.3401774926,0.443200484,0.3334676574,0.5140287299,0.2315631943,0.451957426,0.346344835,0.5166518881,0.4308819921,0.2793383166,0.4663029632,0.1314604718,0.3492995566,0.4297018727,0.1646137747,0.2356684599,0.3484579892,0.2749294784,0.2983527282,0.3062064118,0.4637359446,0.336841548,0.3914791661,0.3896227369,0.3377397679,0.1816801989,0.4966329796,0.3600651093,0.482510939,0.4089219434,0.3908459287,0.5333760539,0.4553703906,0.4474876312,0.4759560937,0.5472109089,0.3384349252,0.309704835,0.3368296012,0.221560215,0.358951508,0.4357920407,0.3458281859,0.3861276612,0.3363587352,0.3308400412,0.2477982353,0.3682602634,0.4490226013,0.3503952979,0.4278767484,0.3814878933,0.247714074,0.3956040499,0.36135052,0.3801422718,0.4725672281,0.4205921266,0.3507115519,0.3350518108,0.3164467803,0.3469894664,0.2914246634,0.3758905214,0.20866986,0.2529290175,0.4049674442,0.3731870958,0.3409111193,0.3968737492,0.3595283249,0.2793732667,0.3730524683,0.4492637063,0.5007738628,0.4364389363,0.3712950813,0.5685403713,0.2981621327,0.47665956,0.4299150621,0.1404347841,0.6246414786,0.5541973464,0.5149032877,0.2323939479,0.2463414182,0.4145532088,0.3726772274,0.3704682415,0.46145035,0.4956825516,0.2214897321,0.3295982762,0.1876107484,0.3568548461,0.2564676898,0.3801828597,0.2716824875,0.5614189274,0.5509740192,0.2871127037,0.349069317,0.411981321,0.2413415283,0.5178533127,0.3382699335,0.4795908838,0.4131853041,0.4310701802,0.2930352187,0.5011777322,0.2566736534,0.4908882421,0.406419655,0.2623601916,0.11102438,0.3338542749,0.5311728216,0.3302575846,0.2146849612,0.2638835113,0.2529036656,0.5598247765,0.5161394018,0.423031451,0.5323441282,0.4158940103,0.2431366575,0.41700121,0.5040028054,0.3307048879,0.3918048359,0.6096382024,0.350356127,0.287644289,0.3512779878,0.4644842991,0.5038882499,0.3939919434,0.6969245726,0.350750987,0.4328745971,0.2073147685,0.3872998526,0.4614280381,0.3331057065,0.3761252207,0.3165121599,0.2474432908,0.188100635,0.4212393282,0.2988411729,0.4233928213,0.5298527673,0.6082282303,0.5113971091,0.1950931193,0.2924878625,0.4254369499,0.1682945859,0.3349129371,0.4853953784,0.3880551368,0.3223731749,0.2831727215,0.4783070965,0.4215132794,0.5113598376,0.281751133,0.3366056483,0.2427400582,0.2769483826,0.3461654883,1,0.482828,0.569549,0.217764,0.044937,0.445366,0.142491,0.561009,0.115561,0.530977,0.146634,0.399156,0.495698,0.570676,0.038951,0.21227,0.05345,0.354264,1
outputCount=4
weightIndex=0,64,529,2359,10099,42995,47603
weights=##0
##double#47603
   -0.1707158024,-2.6224818324,-2.5637053383,1.5048361944,-3.4194973246,0.5821286645,0.3699414383,-2.1675713477,-1.8647748682,-1.2725795647,1.2380243554,-2.2671908702,-0.5259763783,-2.393065511,1.0605150345,1.0848229181,0.3536210017,-0.8179286,1.0573915684,-1.291227112,0.9917162055,-1.1803695667,0.3113940734,1.0313206724,-1.2365873521,3.4051095757,-1.4370624395,0.7717634334,-0.2430910802,-0.2055440599,0.8790059953,0.7878098372,-4.4718725122,-0.3547536009,1.1415649751,1.2553848837,0.5854865521,0.5015192681,0.0641220152,0.3601777383,1.6207618384,-3.6292578916,-0.2333363726,-0.8224323186,1.6466974293,0.1394634188,-1.5353754611,-0.9181886711,0.150732367,-0.2036515753,-0.7395776559,-2.8418508215,0.1960964025,-0.7293638201,0.5750425306,-1.9402454522,-0.182826084,-1.7298133905,-3.3077546601,-2.019116877,-2.9546624964,-4.5731209099,-4.7022743323,-1.4287495356,-1.2902000428,-0.3354829497,0.7273009443,2.5607479143,-1.4282387868,-1.7295042531,1.7722109771,-0.2601027047,-0.940554056,1.7057147014,-1.3421138937,-0.51096602,-0.2173633396,2.0668446297,0.616967014,0.2022173296,2.0748281864,1.5812824863,-1.9713621226,2.3412940084,-0.7671665368,-0.3648262105,-1.6889823727,-0.5153906065,0.8852972507,-0.8228067408,1.9121381233,-0.8792048497,-1.2420990019,-0.332159574,-0.2524654022,1.325146422,0.3731084921,-2.835803103,-1.9766557004,-0.4725901282,-0.3433321233,-1.8092967471,-0.4471560553,0.9675920846,-2.5635770002,0.8574391929,-0.1607304609,0.5436365664,-1.6087876459,0.5884575954,0.2707725161,-2.5137503381,-0.4104392691,0.4581519765,-1.799148244,-0.6767597206,0.4038164284,-1.3383793935,-0.3446771354,-1.6486422782,-0.115595253,-2.0449756399,0.1198168543,-0.7021855284,-0.8482558215,-0.3707867874,0.2601127431,-1.0964959412,-2.7526795287,-0.9110273773,-2.5210492789,1.3520079279,-1.5628652242,2.190739443,2.6459262585,-1.3105562796,0.678182713,-0.9309041544,-0.7345434771,-1.7443982455,2.3745863294,1.6188838943,-2.5266611357,-0.5367823111,0.2090570538,-0.2514240626,0.8697370339,0.5192941613,-1.4830314425,0.9152963192,-0.4803876651,-0.4301164257,-1.1959029878,-0.8219354088,-0.4316144095,-3.0744763267,0.9596034417,-0.0721681958,2.0374930117,3.0840560266,-2.1985757081,3.1121429879,0.3099053289,-0.8678099203,-0.7042720003,-0.1816071974,0.2578247961,-0.7339947106,-0.6549695978,0.3020759077,-0.4223824289,-0.7508578339,-0.9888655056,0.8388816867,-1.5457938989,2.9937289004,-2.1499930391,-0.5002655051,0.6396937934,3.6444060623,2.5031194399,-0.7492346229,1.9479795106,-2.4978228149,0.8143780835,0.4440134814,2.8385827534,0.6319083716,1.1674528847,-1.4550549257,-2.8561076692,2.174439573,-1.74703099,1.6116118585,-1.3209483156,1.4472384037,2.5371669226,-1.8958846181,1.6695913512,-1.2585453023,-0.0329438905,-0.0306664855,1.8948449899,2.0986685631,-1.7853923927,2.8961958126,-1.1199779164,0.9244686079,-0.7746138808,-0.9076864384,-1.3956571087,0.1011597517,-1.0496293645,-1.9641754681,2.2376142671,-0.9762447246,-0.7649660873,-3.5396775572,-0.0279075171,0.150603,2.1142659921,1.4057015423,-2.0834588457,1.6978695051,0.0913746645,-0.2563161479,-0.6168353546,-0.0476797107,0.548138317,-0.9476421772,0.3309697982,1.0000869006,0.1729051421,-1.3321320334,0.5512482813,-1.1281718136,-0.8618068839,4.3719348929,-2.3032889087,0.8646849033,-0.8880329229,2.5520797983,1.3848147546,-0.7635000188,0.9112289567,-0.6158927389,1.9904859697,0.3552417589,1.8377770958,0.3717287097,-0.4072270028,-1.4500235081,0.1134164601,-1.2902338617,-0.9416966903,-0.0893941589,-0.5693698317,-0.6765172032,-0.828618679,0.2149971984,-1.1694962721,-0.9690534786,-0.1694737832,-0.8288712043,-0.2917403699,-0.5741093821,-0.6207222745,-0.3533159378,-2.0427216774,-0.2737114424,-1.219401416,-0.4494226438,-2.6163460291,-2.0331981117,-1.4175445577,-0.7621637271,0.2313184063,-0.8729398155,-0.9800692536,-1.5927217767,-0.2550973109,1.1935139454,-0.5792381066,-2.4849558664,2.5958373138,-3.0463483114,1.183168583,0.201621008,1.7446382087,1.4256287293,-1.4542413333,1.1709094441,-0.6288805745,-0.6189378765,-0.7651487308,0.6068828244,1.813175825,-1.3350555421,1.9113519296,-0.9965813708,-0.1514417827,-1.1279954144,-0.5743164675,-1.3054673917,-0.6604322144,-0.1583965197,-1.0613869153,2.0618160904,-2.1974258403,0.4092482699,-3.3531402938,0.7568746365,1.8804899633,0.7907323884,-0.3444430117,-2.9551805528,-0.5699812279,0.7475831526,-2.5123780337,-0.3936292679,1.1266910998,-2.051163886,0.065060573,0.255545747,0.7527753111,-1.1387786025,-0.7403477174,-0.6298755573,-2.4158469521,-2.3926230001,1.9800881417,-2.7837278686,-0.3903594614,0.6150905419,-0.2274983492,0.8086956814,-1.9223490778,0.449562468,-1.0853306122,0.3485409135,0.7402306526,0.9857025892,-0.8097260721,-1.1965928354,-1.3128715012,-1.0013474738,2.3904678041,-2.6355591545,-0.8301044314,1.696126441,0.904554419,0.0247375663,-0.4057688909,-1.1072716193,-1.0257691928,-0.9914819631,1.6751471508,0.1889804089,-0.3731788867,0.9840637425,1.9958993945,-3.1864075953,1.8158869247,-1.3439324527,-1.1689209705,-2.8477666234,-2.6230292708,1.5022301225,-1.1859656001,2.0262395023,-1.1793876994,-0.0506427815,-2.6632061011,-0.1270539135,0.5266809671,1.4526535127,3.8408146337,-4.1519701543,3.0834974911,-0.720325352,0.3415168898,-1.0489722714,-2.1157784726,0.6113658383,-1.6403205998,0.9709423189,0.9079902084,0.726038155,-1.1896198169,-1.8487202545,1.8142650842,-2.572550464,-0.0193043097,0.2927796276,0.7539641853,0.02114844,2.1455587674,0.4179731579,1.2401344093,1.7560264999,-1.3719796242,2.2262832542,0.7652208592,2.0038405155,-0.6953098539,0.5019147109,-1.2225211316,-2.2898919588,3.2692526028,-3.0413139762,0.5112362149,-0.1393472355,1.0597201328,0.4779313969,-1.0271532565,-0.5432225927,-0.6925223091,0.0834392015,0.4849273403,1.3420484607,0.5431846114,-1.1251712197,0.8215052021,-2.6498839339,1.0381913115,-0.4596127125,-0.3341316153,-1.5326306667,-1.7028547265,0.3540952912,-1.531874229,1.6747955622,-2.395058752,-0.6318148486,-2.3407643019,0.8833792199,0.2870210731,0.2436195265,-1.5905960932,-2.9144893198,-0.0479262533,1.3318124515,-1.9222058583,0.3054000519,0.091068188,-0.8146959079,-0.1654966822,0.1069042918,0.3007423317,-2.6375461127,-1.1133088231,-0.4102808885,-1.1784087171,-1.9623130031,1.3178926514,-2.5690316843,0.0552929901,-0.2995197022,0.1627971943,0.4966135342,-0.9906802274,0.9012719657,-1.6954170383,1.8531059331,0.648563858,-0.2916703773,0.0566859703,0.1585899795,-0.1505333514,-3.1278502896,-0.8835095482,-1.933467621,0.0400254182,-1.6070502634,1.4401324027,1.7643710068,-1.1258247356,0.8474635633,0.6819797432,0.5353213095,-1.6102715653,0.0625328559,0.7136674871,-1.9777800257,-1.5621542601,-0.6347522648,-0.8146117525,1.2650371749,-0.4173017895,-0.3750693998,-0.5110008655,-1.6769224377,-0.8746158937,-0.4113196852,-0.2187449881,-0.5204503357,-2.5476176875,0.8165503977,-1.7806320448,-0.0426945733,0.6452983765,1.6277452368,0.9719984935,-0.6975298491,1.6807305619,-0.0142625469,0.4403312703,2.6449978874,-0.1888983712,-0.0440229251,0.4441054747,1.9874691992,0.3169069903,0.1662616192,2.4355754183,2.2069486569,-1.2315868079,2.644045939,-1.0983849481,0.0206466501,-0.5018721225,-1.9662453448,1.2190189212,-1.3366102912,2.2296384879,0.4840043219,-0.7429193091,-1.4965587172,-0.3659419768,-1.1990372413,0.0699323032,0.4683010479,-0.2106584265,0.3098005517,-1.0136166621,-0.8077381674,0.909122725,0.1950192534,0.7833568744,1.970262852,0.0096738158,-0.9265768998,1.6718762067,0.8507795383,-0.6036696349,-2.9982176504,0.6325845255,-0.1421399007,-1.277712131,-0.5955195217,-1.1127689155,-0.7566083505,1.2300235598,0.0879171893,-2.3031911105,0.2357921879,0.6798605309,0.0906322698,0.280960891,-0.1251166628,0.4142262891,-0.5476315159,1.8125031012,0.0033330078,0.7137110193,-0.7024838558,-0.4570898324,-0.1215756378,1.1742626312,-0.5376535507,0.8038468722,0.5070022623,0.934830754,0.1324073718,-0.4188346291,0.0167215144,-0.9862700681,-0.3469549197,-0.5930948648,-1.2852591089,-0.5155242495,-1.5077903533,-0.0367166459,1.029817602,-1.0463081793,0.1016029199,0.2177605012,1.7020782624,-0.5902903386,0.4539756785,0.8648650922,-1.3037016616,-1.2350054146,-0.3953153307,-0.1958669009,0.884602961,-1.2257862864,1.1695120754,-0.0844118824,-0.356746325,1.2455034312,-0.5989954702,-0.2501762153,2.4738659714,2.3682429519,-1.131792318,1.2170265578,0.2128289361,0.2440310342,0.5034296034,1.0118016146,0.16839207,-0.2855954382,-0.495411822,-0.4065308619,-1.1766417274,-0.9005730643,-0.7051293809,1.1454233654,-0.799284905,0.748810801,0.7540998256,-0.3781971562,-0.7618128035,0.1215954049,1.1103512977,0.0115048596,0.334308645,0.2119749158,0.5421565999,0.4104568691,-0.5727484722,0.7358711118,-1.376976803,-0.542058625,-2.3846415167,0.2449300709,0.3596922382,0.3020392475,-0.2469779731,0.0634208999,-0.5037163767,0.2211466243,0.7868521474,-0.831891327,-0.4256915846,0.8823236478,1.0072364163,0.7506401413,0.4761359238,-0.7239906385,1.0578164328,0.3112869314,-1.995137958,-0.0598765156,0.5122608801,1.4046934617,-0.506474864,0.2370991271,-0.8922179274,0.3573192588,0.4804198859,-0.1519445247,-1.3157439038,0.2139680416,0.8164628679,-0.5752825118,0.3079306249,0.7039817731,0.2138096976,2.1751194832,1.0962233834,-0.9331635667,0.6465053202,-1.2426467925,1.0781759046,0.9093445036,-1.0467989886,0.768920844,0.2194942146,-0.355310261,0.3033444407,-1.454107815,-1.4516593797,-0.7875341458,-0.3924047716,0.3525514992,-1.2397295585,-0.0290218988,-0.6105067424,-1.6024696157,0.4491012994,0.8562028392,-1.1716242812,-1.6038085983,-0.2370306897,-1.8375659612,0.2275248028,0.595208946,-0.8146312037,0.1105668598,0.968000429,-0.3247243297,-0.7985983547,-0.5922909194,-0.1538720314,0.0882321855,0.5936570794,0.4404345688,-0.2380967216,-0.70471987,-0.6571217021,-0.746906764,-1.3399244718,0.7168169706,2.1232633438,-0.9910008453,-0.273032778,-0.6742655453,-1.987068563,0.5176363431,1.309405371,1.1207394828,0.9858499945,0.7882465489,-2.0201651613,1.4665168669,-0.2332556744,1.7442675581,-0.257842785,0.8777720238,1.0211935404,-0.8809032253,1.2544058283,0.5772435893,0.2632174278,-0.2401495365,0.8647680326,0.3405247306,-0.0892111704,1.0173809213,0.3636782536,-1.2246049381,1.0766104292,1.804376434,1.7255388008,-0.4450240455,0.6046535313,-0.7338544709,-0.585506441,-0.7279021012,-0.2136805489,0.5899939762,0.2194029538,2.0311221238,-0.2157586002,1.2241662958,1.9975962005,-1.1089653856,-1.1458940919,-0.4308081573,0.181261808,-0.1499259954,0.0945645371,-1.9818635939,0.4929454845,0.5238286482,-0.0822380947,-1.9953930969,0.6822328642,-1.1258061584,0.5743786432,-0.7089626383,1.3608719418,0.5923620803,-0.4626449204,-0.9695846773,0.5237217446,1.6687441896,0.1946398286,-0.3088158289,-0.7839424566,1.1534443833,0.1843284621,-1.1638245327,0.6212287508,0.5187511448,-0.0694024772,-0.518725289,0.5775969411,-0.4675827911,-0.4654490368,2.4290010907,0.4969791246,0.4904852989,0.0131014264,-1.5592408619,0.8188635902,0.3281545266,-0.5291495546,0.4093833352,0.1837016285,0.6661504091,-0.4374072458,-0.8172543363,-0.6659271609,0.3258706698,0.3919123374,0.6239320321,-0.478932679,0.9958975286,-0.0946649916,-0.1370510444,-0.6738106359,-0.2186474651,-0.7502264905,-1.2190062929,0.1633335069,-1.6455288655,-0.6637787583,0.1849720427,-1.6322062926,1.4037571751,-0.2179033522,0.6053346553,0.9695958936,-1.6649113868,-1.1598677865,-0.4405614016,-0.2080979952,-0.0675143848,-0.1422695164,0.6408084695,-0.319177441,0.1446181332,-0.7308009148,-0.9508633897,0.7823393234,-0.8191647116,-0.5651143245,1.1289856057,0.8323250801,0.3818916334,-0.8768057927,1.4859102287,1.1066742779,0.7331665348,1.4478044524,1.5077496035,-0.3358671637,-0.7661761441,-0.8679212855,-0.5236640115,-1.0469720526,-1.3561262564,-0.7319140141,0.5775693443,0.579049428,-1.2854566102,-0.418864809,-1.0832957328,0.3755626879,-1.5828312902,0.4796083127,-0.5035006582,-0.1310695633,1.4696703044,1.0744838326,-0.0626649121,0.6201927037,0.4784402219,0.8898102309,0.6757975236,-0.7642341421,0.8860091466,0.3947876293,1.3617228281,-0.6021702927,0.6334657687,-1.5302644105,0.1523537716,-0.629805041,0.4012902011,1.2632515288,-0.9049805335,-0.4245112636,-0.792170362,-0.7949449187,0.6647541653,0.267763874,-0.5023722072,-0.5284320272,-0.0216256753,-0.4849202689,0.6008565992,1.1081838902,0.7361060239,0.5447369762,0.5580081355,-1.0457930069,1.8281066476,0.3639527271,1.4473220171,-0.7860883311,-0.4436506569,-1.0423642194,-0.9684009536,0.5002483516,-1.0598253609,-0.4559100748,-0.6565342016,1.8302048745,1.3238157897,1.5658498655,-0.1428056683,0.4346707794,-0.7672778036,0.3809068153,-0.385058745,0.39082209,2.4889150004,0.0866894233,-0.3011593151,1.6785852741,0.046008928,0.5272924445,-0.7940861002,1.8010198154,-1.1100231643,-0.3215607186,0.6063664281,-1.2475841962,-0.0216866633,-0.3641884896,-0.696678092,-0.7221265651,-0.3507102191,1.9817693397,1.1031561229,0.3245918426,2.7066178547,1.2616117939,-0.7337854465,0.9744616783,-0.6926566547,-0.5924104201,0.3386082147,0.4182029257,-0.5495249903,0.6238734597,-0.2250549914,1.2657531794,-0.6048302209,0.9342378003,-1.0000710129,0.2180060118,-1.5222608743,-0.3135415366,0.1533605882,-0.2252365534,-0.5601075945,-0.6705870184,2.4444212399,-0.7989667555,-0.8938189023,1.0619283502,-0.3457562929,0.8492922587,-0.4081456508,-1.7135188044,-1.4313867564,0.6745599427,0.1968556989,0.1762733539,-0.1371110693,-1.0205338843,-0.6170724493,0.0607536755,-0.4301671479,-0.0039591499,-1.026781942,0.270186719,-0.6052194956,-0.4919437883,0.9394958367,1.2994943511,-0.006116623,-0.1539901486,0.9792592294,-0.4875317483,-0.1266040454,-0.0102781692,0.2709568208,0.0346907995,1.0090315588,1.1033604737,0.3173269872,0.1916811012,0.9578716615,2.0048112121,0.5846088027,1.2751514331,0.0532952258,0.7082328418,1.230303817,1.7524512827,-0.070575608,1.4661579226,0.2296530754,-0.0641350406,1.3221902901,-0.1401007576,-0.3365519341,-0.9679838955,0.6343568401,1.3681029334,-0.1428086815,-1.4587617313,0.9448700033,1.013730553,-0.9794673888,-0.9827420711,0.1153929438,0.039870502,0.7789738222,-0.058687909,0.3602732051,1.5681889035,1.154292498,0.9395242498,0.7129570718,0.3359395455,1.1018429637,0.2442623183,0.1852059101,0.5303167009,-2.1080999443,-1.6542506137,-0.3612634572,0.0228854853,0.4420866955,-1.5161098026,-1.1803863645,-0.5024206867,-0.4370512749,-0.9645702099,1.2178718861,0.0041133983,1.5549737465,-0.4688312926,0.2960573941,-0.6515521633,0.9230524647,1.2328344177,0.1106308456,1.1214091243,0.1462299244,0.3895524015,-0.7977503513,-0.1355765684,0.6710696361,-1.4206853371,-0.6336773571,-0.1335672896,0.5768090839,-0.0719174482,1.2267707589,-0.4984567047,0.8601549181,0.3264250097,0.0567730826,0.6101951018,-0.4670130135,-0.7870712342,-0.8616537622,1.2286555229,1.2792903075,-0.7529229255,-0.0286528303,0.3030324991,-0.0216702211,1.709667252,0.6367518282,1.4134196331,1.0943775493,0.5575088309,-1.0846980225,1.0843638482,-0.411100722,-1.2663688262,-0.3139083006,-1.3853074543,-0.1244620791,-1.2979180039,0.9604049585,0.9591204395,1.2179441857,1.7750112151,1.431543074,-0.9443695658,0.6606508972,-0.1599239671,0.4277585876,0.8127344076,-0.4228646672,0.7094661648,1.1870206985,-0.6529743766,0.279083523,-1.1714256896,-3.0124751538,-1.0998350983,0.6469661665,-0.8080773814,-1.3727920386,-0.1546477679,-1.1138317434,0.6269654175,0.6633068693,-0.3526101755,-0.0157684608,-0.3047401625,1.5452556893,0.63272414,0.8297668102,-0.0376797901,-1.1856406371,-0.1181458523,-0.3559854075,-0.5858647266,-0.7089106471,1.1858527913,-0.5780585261,-0.1111502582,0.5798559254,-0.9739695368,-0.6727765046,-1.1699649325,-0.0053097629,0.6103434891,-0.0102174343,1.2018404453,-0.0663382924,-0.2994780474,-1.0651719848,-0.5948337415,-0.6322837778,0.3367779294,-0.4449511654,0.9516584914,-0.2250021922,0.4466080921,0.5468909689,1.167343271,1.1852038155,-0.7898996083,-1.0950383591,-0.1942056375,-1.6609359316,-0.3391780376,0.8453601823,0.5905382985,0.0424957286,0.2772911404,-1.6048019444,0.1146273159,-0.0150971102,-0.6001541729,1.2841500727,-0.4474405873,0.6353680347,1.1072738938,1.4914507232,0.542462808,1.1571467315,0.9267022027,0.9480616141,1.032196549,-0.987454009,-0.9201202689,-1.0180336161,-0.3598246555,-0.3313250753,-1.1996584692,-1.8821767365,-0.5784007697,-1.0376349818,0.3829552182,0.774388275,-0.916104807,0.9332690376,-0.5888013963,-1.1976905653,0.8492474341,-0.0951584709,-0.7836548733,-0.6653243101,1.0709575285,0.0515171321,0.9172170114,0.5425777027,0.44437913,-0.3068419369,-1.7226764112,-1.1654791893,2.2442892409,-0.8862971053,2.0670939304,-1.1366577242,-1.1114860706,0.9182796192,0.8234650282,0.5355072758,1.6746573644,1.0704323651,-0.1789932882,-0.6488079436,0.9789464528,0.2933531256,0.7387876681,0.6791529917,-0.4295234325,0.3432522976,-1.2161014478,-0.4858492076,-0.2018566485,-0.5947706855,0.9657638764,1.8831651078,0.9820726603,-0.3610072594,-0.9451686285,-0.1192522433,0.1226415948,0.1202404337,0.1514818363,0.6132721682,0.518370814,0.2458378282,-0.6168421051,-0.317234037,-0.1830811906,-0.4707326336,0.538954954,0.3364573798,-2.333160689,-0.0355113186,0.7094063695,1.1794625048,0.4784437808,0.0441831353,1.0647506883,0.6331944725,-0.9877599081,0.0069502382,-1.1017070606,1.1019882238,-0.203574816,2.200985769,0.3735304108,-0.0518521468,0.2909620367,0.6194396309,-0.0361437935,-2.0934049702,0.3402274586,0.5662212531,0.6010941145,0.1824087239,0.7697293965,-0.5189698098,1.3252871398,-0.7519358324,0.4465413232,2.2131353625,-0.055157724,-0.1305590471,0.7581589007,-1.3268409057,-0.5872859969,1.2920227679,-0.5485743159,0.1436673643,0.1772353109,0.1317487949,-1.0561285458,-0.6188263306,-0.1293942899,0.5244587084,-1.8605164573,0.7438720802,1.2036268644,-0.3876509959,-1.5436239429,-0.202097527,-0.0729509461,0.1169626528,-0.9310833657,-0.1268935366,-0.5340863905,0.6047522245,0.7113718214,-0.212545826,-1.1910907233,-0.5255752915,0.1266903438,-3.143323873,-0.4018645827,0.9100422598,-1.0932256913,-0.0845903295,-0.5964671932,0.3221030086,-0.0404541851,-0.7762532762,0.13402764,0.2425205109,-0.1426042397,0.2168314818,-0.0177984247,0.4306847972,-0.5667030803,-0.5122274416,-0.50774133,0.4278783126,-1.9292864113,-0.258446582,0.2452937192,-0.146566288,-0.477382851,-0.756423491,-0.0915891616,-0.4536762515,-1.1135706568,-0.6336567005,-0.2717855198,0.3804056556,0.2883983091,1.7322810092,0.8614330898,1.0935826137,0.4121066546,1.464211531,1.1296463616,0.7306981843,0.094296999,1.0240188194,2.6615287119,0.1441312037,-0.54513329,2.088117681,0.2600950901,-0.5112748456,-0.9883507243,1.3727111395,-1.3139328524,-0.6063769534,-0.3927242273,0.3355862499,-0.8551843016,-0.0822702264,-0.0394954927,0.1693666307,0.3759906008,0.1840462569,-0.082383003,-0.0053397753,0.7871198807,-0.478862526,0.745105396,0.8680055377,-0.5573766717,-0.0705471275,0.1175793771,0.2115027811,1.4900851701,-0.2718873984,-1.8720358309,1.1920420616,-0.7702142647,0.5195197499,-1.5125363741,-0.029944908,0.2032562665,-0.6101113623,1.5549707506,-1.8190448381,-0.2982187498,-1.1390094296,0.9404604804,0.7615085373,-0.9249491666,0.7460544354,0.1587492314,0.2831185358,0.8514293106,-0.7684823519,-0.604399862,-0.0413837886,0.6479750266,-0.9036634865,1.1880858191,-2.5665861789,-0.4271562485,-0.9344130407,0.7273628815,0.3301281033,-0.3597031639,-0.2558301413,0.9559748701,-0.201007454,-0.4566125241,-1.1206436729,-0.1379303247,-1.6874221797,0.7416101943,-1.4241673532,-0.8509144546,0.0261465991,0.4106009823,-0.8331085751,-0.8174370444,0.2602010335,0.2052807477,0.9936880736,1.183973073,0.8643165726,1.4967096306,1.0678455363,1.2083857799,-0.1406748942,0.7022104441,-1.4074633733,-0.433239785,-0.7252521947,0.4984945708,-0.5071981448,0.0314998861,-0.3935436037,-0.8627725914,-0.7049784324,0.7442542687,-1.1391606909,0.7235574158,-0.4122966665,0.7233799475,1.0406196761,0.4671560098,-0.5244520829,0.5194147887,0.9983409009,-0.7164167716,0.6374348379,-0.1185847852,-0.228696169,0.9061771229,1.1945315664,-0.3471442587,-0.9435648487,1.2118368675,-0.414991132,-0.0014879864,-0.0702288109,-2.3352177519,-0.964585272,1.1533249648,0.444827234,1.6057278135,-1.1345296261,-0.9617757937,-0.3359549637,-1.2302230708,-0.5917145649,0.5070689225,0.9941586404,1.1680331736,1.2219594665,1.5455677466,-0.4997908814,-0.5326226452,1.3589050592,-0.6008953563,0.2136439469,0.456716249,0.5342895225,-1.4355624408,1.1891757372,0.513806702,0.2740034143,1.6516009327,-0.8124841996,0.3941298483,1.1848718775,-0.5532089519,-0.7431560207,0.5402620438,-0.7129131925,-0.0368566689,-0.7085161423,-0.7622658988,0.0941547036,0.5668144706,0.1124002064,0.8510625898,0.1736017821,-0.1501104258,-0.8982434398,0.8480960568,2.4498636463,-0.6032847038,0.4672998547,0.7650510155,1.1341828574,0.4685208104,-0.8974190897,-1.088972275,0.0105123798,-0.0394521092,-0.2647545029,0.5176569192,-0.2853826247,1.9472243221,0.0443139424,0.155509936,2.0718074655,1.242738095,1.3123341892,-0.8727801812,-0.622403314,0.8888873269,1.4515996556,0.1522100189,-0.1427554772,0.6601011021,-0.6504996578,-1.0197574543,-0.7902955813,2.3110522629,-0.4656050651,0.0786116305,0.4216669571,-0.9946140998,0.9537811505,-1.155606408,-0.9001589871,-0.0620046602,1.2587767081,2.0666826255,-1.2263008345,0.7597094074,1.6378643606,-0.3219858171,-1.0391693959,0.0870598146,-0.0779880649,1.142639686,-0.5885212698,-0.5520038969,1.2458265808,-0.3450504062,0.2220952537,1.1716840052,0.3840232547,-0.4868683896,-0.7462151673,0.9282347713,-0.3130638192,-0.2932385801,0.9971084605,1.299208886,-0.0724954155,-2.0990079722,0.212588048,-2.0080168554,0.8486720777,1.4664131321,-0.4528002028,0.9744585637,0.5715308178,-1.4304663026,-1.8575553923,0.2031098233,0.8317461816,-0.6327189026,-0.864237714,-1.397848446,-1.2953995173,-0.8130922849,-0.2101727071,-0.6349679577,-0.034536361,-1.5747343467,-0.3774579053,-0.4865397391,-2.7205193566,-0.5252130249,-0.6295291851,0.439651763,2.25738114,1.1396769531,0.8853530733,-0.2451169042,-0.8886768094,-0.9407651591,-0.9155811937,0.7642854299,0.9118896103,-1.4237354011,1.390104576,-0.9043478838,0.4876393123,2.0495339859,0.2172240552,-0.0318392909,-2.0427341677,-1.5599715247,0.9282979066,-1.1555485521,-0.7295372285,0.4621885128,1.3980499934,-0.2176064212,-0.8448250865,-0.9848481609,-1.9819091651,0.8173330852,0.5809764406,-0.7660819321,-0.6999821849,-0.8086449587,0.3883164477,-0.7708866245,0.1575797049,-1.4302325638,-0.2737889639,-0.7568614463,0.0864989021,-1.6132721346,-0.8070933652,-0.7539730738,2.5523550904,3.0563283489,-0.3562989012,-1.4427012691,-1.0886194051,2.1310185649,2.2821904405,-2.0233528497,-1.3745337095,0.6682340845,-0.1624215341,0.6325939089,-0.253277441,0.3634390577,-0.1313446076,-1.6041421527,-0.6093402098,0.0142482804,-0.2444362165,0.4124814211,1.0932420064,0.6436825215,1.5940813243,-0.4184016932,-0.286350709,0.001328173,0.3042362109,0.4436675639,0.3174169128,-1.6664234173,0.8316292433,-1.1859028452,-1.9228781121,0.7777513787,-0.1023178144,-0.5391439552,-1.324823933,-0.3316949545,0.2203399994,0.571236171,-1.9563302786,-0.404032541,0.8531179816,1.3332977949,-0.9590970011,2.6441223301,-0.2794698907,-0.0448831382,0.2866839614,0.1728632049,0.2656879646,1.5597233087,-0.6581512638,0.4703491324,-1.432239389,0.3964431565,-0.6646726,-0.8733272302,-1.7358271197,0.8778384893,-1.1192977281,-0.9757844572,0.2307909848,0.6892197201,1.5542606207,0.5956291775,1.0027654879,-0.1824574931,1.1452787138,1.6590505607,-1.1677139977,0.7163722718,0.7646033022,0.8091405579,0.7784734852,-0.1111289584,2.5491061824,-0.4912456191,-0.9247801542,0.7866306935,0.7701397093,-1.1868081324,0.241869536,-0.3407346425,-0.8609036005,-0.8524929774,0.6156944476,-1.4149241188,-0.9367678465,1.073965004,0.6323171644,0.744295927,1.001868684,1.9794941277,0.9449482385,0.0174897681,-0.1147707128,-0.2972585856,-0.9156233626,-0.2713500315,-0.3792191585,0.9246440246,0.9592767856,-0.7837788791,0.8426970935,-0.4878570483,0.4387554752,-0.998285552,0.6397362656,0.9046755923,0.1558605423,0.8518896652,-2.0851663792,0.2963917596,-0.2460680409,1.3371805651,0.5729346284,-0.0239126386,-0.1174909195,0.7517773643,0.6432835377,0.8100860529,1.4788227013,0.4457784654,-0.5951381954,-0.2553375869,-0.8286094211,0.3069455052,0.2928037912,0.3009836602,0.5542369331,0.3767751782,-0.9711151814,0.9669988706,-0.9332836801,-0.6301405952,0.0311296157,0.3125879008,1.0844822442,0.9626618418,0.2045308672,-1.0610069476,-1.1016530197,-0.98031714,1.564770735,-0.8370181019,0.1598300116,0.2370159035,-0.1488908651,0.5102056572,-0.4241921117,-0.1772179626,-0.2198704249,0.9014856455,-2.4499400952,1.3138953119,0.8206283704,-0.0221793581,-0.6046023136,-0.6851214064,-0.4435365798,0.5045309382,-0.8007709936,-0.6539021911,-1.0214763513,0.8170550612,-0.7889378243,0.4949017623,0.1494678319,0.0467173254,0.7235174675,1.1224794885,-0.1409206616,-0.8739846485,0.336500836,0.5991008657,0.4676951671,1.052878857,0.3706346414,-1.0311884458,-0.7836747955,-0.9382362587,0.2370668414,1.1628649915,0.283426085,0.411216357,-1.9193139314,-0.3358548013,-2.1712453578,0.6383763829,0.3628331136,-0.7043681356,-0.0196603297,0.5293321117,-0.6898599322,-0.2610550223,-0.0601146473,-0.776990468,-0.4005474688,-0.0915615187,1.1737948411,-0.0433724655,-2.8569910037,-1.5580968843,-0.3772938845,0.5852679459,-0.4325456481,0.5219048523,0.2284832245,0.3231834889,-0.3821973205,-1.0580063722,-1.5970742172,0.0973824997,-1.2263986321,-1.4849084971,0.8408958653,1.2185160312,1.0786083336,0.3941304951,-0.0395202135,0.7554385804,0.2818486478,-0.4616649761,-0.8660907987,-0.4486306303,1.649670695,0.2064139125,0.1951853486,0.5063641083,-0.2188918103,0.4825665371,0.3946743518,-2.1667222509,-0.3923583023,0.5187775265,0.2658841969,-2.2372576541,0.2789292938,-0.5612177681,-0.188658179,-1.20877107,-0.5263933251,-0.6524315302,2.1741461463,2.2582524161,-0.6354438133,-0.3369062368,-1.155695331,1.1625774961,1.8506627407,1.3154734798,-0.1676793379,0.8394287533,-1.2716800978,0.0968627618,1.022123374,1.0308253261,1.1586206101,-1.2135836845,-0.3481518893,-0.6119398962,0.1023687114,-1.0747417267,0.2675373701,-0.083521428,0.7555340874,-0.4200764678,1.0516874242,0.5166646499,-0.8627450238,0.1897288146,0.2872160473,0.3260823849,-1.4135537754,-0.6496434041,-2.6606098919,0.0034448665,0.7973475379,0.2679077331,-0.508614776,-0.8017249451,-0.6054792065,0.2089133224,-1.3473016569,-0.9000238699,1.1794437597,0.7784483791,-0.4811383146,-0.3509101691,-0.4123008926,-0.5138875112,-0.4879122233,-0.5311649655,-0.4693742427,-0.2030589243,-1.0276713172,-0.631313571,-2.1496302451,0.2342425852,-0.6442331411,-0.9021613869,-0.6556146672,-0.0980414803,0.2433080545,1.5379100401,2.6990568682,-0.990982379,-1.5977743236,-0.0215401531,0.3587603194,1.9143450941,-1.5125887971,-0.7383733832,0.8378782709,0.2227747844,0.0714339557,-0.9557443727,-0.872796053,-0.5370771538,-0.1450275426,-0.8320661985,-0.499636567,0.9455480182,-0.8726753238,-0.0427678095,-0.3239251368,1.8650658555,0.8209772243,-0.1778599552,0.2098264735,1.1502572739,0.5268941937,-0.4466167417,-0.1930208535,0.1142694224,-0.8764059782,-1.9914988404,0.4441209439,-0.4855752522,-0.138765055,-0.2681539832,0.1290820477,-0.6421355249,0.0028537253,-0.9090920839,-0.2902052498,0.4414038239,-0.0547822204,-0.9129454461,2.1982339165,-0.0904663471,0.0209385459,-0.933918605,0.7814818092,1.2367436959,2.0774523286,-0.3550911984,0.2259788417,0.3341983355,1.3173363182,0.3477839381,-1.2028529387,-0.7965263245,0.2902268137,-0.7787902817,-1.3047222071,-0.2893546263,-0.9191155452,1.6347307118,0.6979499715,0.0154240053,1.1841705488,1.4018073778,-0.0961525758,0.0825676352,0.6704333134,-0.577282843,1.7774395048,-0.1912056736,-0.5298398426,2.2742945081,0.2640655879,-0.6395698368,-1.1472639267,0.6412944937,-1.2603785235,0.0249222623,-0.6875935748,-0.3271680012,0.8682690202,-0.8770028056,0.4420085965,-0.5290721433,0.6846705364,1.6745760874,0.8190086775,0.7356998591,1.8336422781,1.1052911632,-0.2483381662,-0.0596555011,0.1604540606,1.1296129459,-1.5755215508,0.6725583046,0.0258756599,0.9443665083
   -0.5804567464,1.5300930616,-0.9067445295,-0.2091331623,-0.9131773773,-0.9365539874,0.3479845057,-0.0779151044,-1.4563635125,-0.4051493816,-0.9788025772,0.3810262668,1.010933688,-0.0346301333,-0.9796450924,0.2449057656,1.3139318458,0.6047848162,-0.9973799736,2.0357669135,1.6593851213,-0.7510770266,0.1163764175,-1.4787286441,0.6354724159,1.971799587,0.2904314895,1.0937261449,0.5747913471,-0.6993346789,0.2710589543,0.2217420414,-0.0589891785,0.7687562444,0.060646425,0.9772882021,0.1155640141,-0.2051561427,-0.8216469708,0.4471181254,-0.9857390963,1.607394773,-0.7593733215,-0.1047274189,-0.4689025809,-0.7682641668,0.6968210098,-0.4591336355,0.0936647409,0.3968181345,-0.9369193822,-2.1180126101,0.4333185223,0.785338724,-0.5712026553,0.8162607396,-0.1390695369,0.1402954201,1.0306056848,-1.6930762121,-0.2039192258,0.5678537725,1.1640787662,0.9510669105,-0.5883343791,0.2036350223,-0.6807758158,0.7500355608,0.434719481,1.3717851317,1.1277476416,-1.4852214787,-1.2206844203,-0.4844313909,0.0116609197,-0.5427467816,-1.3642477685,0.9752059966,-0.2957056517,-0.6487717878,-1.0854940787,1.6166518502,-0.6746078471,1.1701973791,-0.7487673666,1.6585130523,0.6554588519,0.7507604481,0.7655081956,-1.7427364978,0.2772492807,-1.6016837025,1.2919752537,-0.4475931333,0.2434518652,-0.8811938064,-0.4598025608,-0.1045858004,0.6973331945,1.8606985888,0.1888765064,0.5230952775,-1.6588598265,0.40416766,0.4524117772,-0.7136001542,-1.5602084086,0.2300233527,1.245332773,2.1139391767,0.4661514823,-0.4078265659,0.5734642157,0.3460465498,-0.3268928694,-1.5737761778,0.4011657291,0.1702724321,0.6298114383,-1.6260379609,0.2137637434,0.7148425686,0.7244150562,-0.1294453062,-0.8631828852,-2.1336332675,0.4700329362,-0.6594267012,0.7905625405,0.3035477977,-2.5894216213,-0.7136809592,-1.0955262923,0.824225807,-0.7991631297,0.8123387093,-0.5119100239,0.1553480109,0.6573176656,-1.1315081591,-0.1370423754,1.8681108331,1.1407204476,-0.0640305779,0.1280091633,-0.5478762747,-1.3426674252,1.76271458,0.3063271622,-0.1224698319,0.6587058092,-1.6785706027,0.813414998,0.3563475644,-0.2195630358,-1.0536281851,-1.5046915022,1.0939029472,-0.0745086115,0.1088836436,-0.6403121008,0.7053327193,0.348362088,0.0524207959,-0.8742936759,0.4725169171,0.465867082,-0.9270990869,1.0243943566,0.0671345715,-0.8073735051,-1.6979437021,0.3386184383,-2.3707884042,0.3305199155,0.9613747052,0.1304397787,0.7755972606,0.0192782512,0.5233429034,1.1270364755,-1.735487059,-0.0114622687,0.1392675324,1.1908454791,-0.7538628766,-0.9661354022,0.009216836,0.6575663136,-0.3430666701,0.1483091962,-2.0088470895,-2.5497035069,1.0876666455,0.157825138,-0.6830841061,-0.7021903044,0.7928140835,1.9100440538,0.3090362976,0.8563913902,-0.4851346406,0.9533438896,-0.6593774649,-0.1750475998,-0.1020256435,0.5545023167,-1.4419860838,0.7278738428,-0.2967429079,-0.275037633,0.412318052,0.0777222421,1.1079548905,0.0875264214,1.0155596435,0.9019129704,0.146497107,-0.696297838,0.3812896751,-0.252546035,-1.6707746969,-0.5876206867,0.7870211436,0.0829121013,0.3321301411,-0.6084622002,0.2823183583,0.6587203207,0.6925975467,-0.6244975827,-1.1018528095,-1.2216358365,-1.1839344655,-2.9785388526,-0.4972087174,0.1016921019,0.909542025,-0.0231543894,0.0921480332,-0.3157987309,1.5781759919,0.260308519,-1.1677325159,-0.8590565404,-0.3075835131,1.3134525884,0.2949286113,-0.8097725486,-0.6429612178,1.051380497,-1.3771535097,-1.1006744823,0.1998115853,0.8347058861,0.1618704437,0.7883334234,0.1288313035,-1.1823433551,1.4422713505,1.1267429986,0.6276403119,-0.0003065988,2.0493125761,0.1932104111,-1.037125852,1.2141544279,-0.0363701386,-0.3470589557,2.0597631427,1.3773945352,-0.8262957196,0.6056359961,-0.5742784274,1.0220104222,-0.6903847316,-1.5548394517,1.0848331916,-1.0033767449,0.3745467722,0.3862650086,0.2886820456,-0.6354756789,-0.4471486137,-0.3298264831,-0.9278394959,-0.9074723405,-0.1738124419,-0.6188308001,-0.1386441159,-0.219966168,0.485349238,-0.7470671315,-1.3254563982,-1.4063387403,-1.6567892432,0.3032159734,-0.8508207182,0.306611175,0.1244328933,-0.981802194,0.7892103642,0.7162218287,-0.7863962164,-0.5455066566,-0.5383018754,-0.2226901351,-0.9480713114,-1.215444156,0.0606993026,0.6777568924,0.9816462659,-0.9188993957,-0.2655844514,-1.7955909416,0.541533053,-0.5097724043,0.9257836028,0.3275512333,0.8336026825,0.5385229361,-0.7371396139,-0.0803094308,0.8035804159,-0.1914198956,0.8870407635,0.6983021397,-0.1529912874,0.1533053295,0.508723347,-1.6038506032,1.2590000786,-0.2664744489,-1.0571138898,0.8021777511,-0.3310990807,-0.954436356,0.9793826217,0.7847053102,0.1110867029,-1.2315701887,0.179177472,-0.704163222,-0.1226710014,0.3350646404,0.2679831613,-0.8447060595,-0.3279396005,-0.7693637073,1.6459745177,0.5310933936,0.1311732595,0.6401399164,-0.6024129314,-0.5789009763,-0.6809214828,1.8300146918,-0.0050244444,0.1056377788,0.2398309505,0.8472865569,0.6926126451,0.5180549224,-0.8172402619,1.0436537032,-1.4510829628,0.1689203308,-0.8883266832,-0.9783261381,1.8687486669,-1.3075432352,-1.0758399265,0.0434129067,-0.5285970517,-0.8059473406,0.5900334827,1.0183591973,-0.8799292916,0.9872725307,-1.5668501763,-0.2066959579,0.1507664192,-0.2475758411,-0.2008442877,0.2860200109,0.5376502075,0.0744299757,0.1301428506,0.7465416302,0.2636370156,0.095329231,1.2281662893,-0.7721150869,-0.4070455012,-0.0856727712,0.8601437294,1.0949059716,-0.7468212146,1.9007671778,0.8776796276,-0.1664370113,0.325121416,2.3122213751,0.0657390379,-0.8337999789,0.1594365681,-0.4319689942,-0.4212814066,0.9995171465,1.5273522135,-0.8419931905,-0.022361728,-0.6071554255,0.49273021,0.5115364908,1.0677630324,1.1258494865,0.9558962684,-0.8785964294,-0.9659325905,-0.3025330829,-0.3061715642,0.3975432438,-0.4500578312,0.0094129747,0.3687215775,0.3840695584,-0.4794927383,-1.825138189,0.3811355153,0.7668309416,0.48428487,0.8728210703,-0.9863331629,0.7735743044,-0.8791087181,-0.8892626579,-0.5384208897,0.804539107,-0.3452192659,-0.3042097222,0.8213734305,0.4061843499,-0.9229533614,-1.2570012375,-0.3075153329,-0.4513392808,0.5730332317,-1.5612895094,0.8445187896,-0.4850280368,1.3788684425,0.3114311078,-0.8815546519,-1.154063804,-0.4800651471,-0.9525375561,-0.5497148409,0.7688663085,0.7615061413,-0.0432167649,-0.074768904,-1.0276538076,-0.407667336,-0.7552872243,0.1923494675,0.0180296654,0.6110469386,1.46436869,-0.4825395294,0.5178527169,1.3337089547,0.0520525798,-0.1672524867,0.1363403769,0.3410591066,-0.234494208,0.5068480981,-0.8460791725,0.4417041698,0.6742001653,0.7565141235,0.206229096,0.6796920273,1.0949435823,1.0701375811,0.5778640071,0.3197997295,-1.1675533881,-0.7821340043,-0.6776572771,0.2711805258,-1.4813465973,-0.4466760173,-0.2997189765,-0.1578259387,-0.444076655,-0.6973247571,-0.3590673525,-2.0711894043,-0.2299515928,-1.3562450724,0.3591742799,0.3832258214,0.2228462847,0.195097189,0.0813475148,-1.5136548495,0.8526839364,0.5761727973,0.3303493143,-0.8661839552,0.513485569,-0.2711725125,-0.1703164393,0.1516338928,-0.1092046186,-0.6652666591,-0.197716454,-0.7038522267,0.8585144309,-0.7141297872,0.3657330662,0.0835339552,-0.807080403,-0.8009614593,-1.0488495309,1.6114808965,-0.1661432767,-0.6215491118,0.6100980205,-0.2543548589,0.2268413793,-1.5894081652,-0.2740032294,0.4186062647,1.0387563044,0.7619000573,1.1347870079,0.9772709938,0.1322070467,0.1865775712,-0.736283386,0.2198822956,0.8173730894,-0.9728760722,-0.1248932109,-0.8998034207,0.2978209505,0.5935950829,-0.1777809389,-0.1242475373,0.0627708277,0.1485317401,-0.086407871,-0.9296981633,1.0771907172,-1.5266984857,0.7251312062,0.4230408594,-0.5428797251,-0.1736106363,-1.4243220605,0.3750950196,-0.70020076,0.9350766949,0.7121593577,0.3669949607,-0.7707687394,-0.1595926087,0.1138609865,0.2612850867,-1.1790555845,-1.6397195375,0.1439200869,-0.3793555159,-0.4035171727,-0.4385316441,-0.3184345544,0.8321935026,-1.2021323039,-0.3868386058,-0.0387348469,-0.8181613022,-0.3529641885,1.088945675,-0.6083368328,-0.4971107939,0.1098788397,-0.1365759272,-0.0638757518,0.7877546875,1.0099094637,-0.1022379409,-0.6853848171,-0.655038,-0.1632321257,1.5201581196,0.9639937065,-1.0036033731,-0.5828478507,-0.3093603439,-0.5157180789,0.716218749,-0.8669412936,0.217770218,-0.0075262983,0.1270616226,-0.1402456659,-0.4918864347,0.9276325138,-0.6032768891,-0.7113036439,0.4721243582,1.0154241777,-0.2716595064,0.3103350267,0.8684798408,-0.6858595045,0.6336175034,-0.12195122,0.296982641,-0.5838002013,-1.0814927974,1.0222604298,0.6614972874,0.2104854686,0.5138257885,0.9509436383,-0.1871954822,-0.9082550732,0.3287660814,-0.8919791756,-0.644989924,-0.2800625801,-1.1867210541,-0.4377045683,-0.6746954296,-0.5257608784,-0.477892665,0.5764419628,0.6910424574,0.7463350389,-1.3846384556,-0.8241085368,0.5277098982,-0.9421880229,-1.0996805969,0.7008295396,-0.3613908867,-0.6614931941,-0.7946192126,0.7170603009,0.5574303246,-1.2753416196,0.7162989704,0.0672360077,0.4930844924,-0.2434524611,0.7866649244,-1.5350319914,0.4610309007,-1.1614489876,-1.2966560491,-0.7209914259,0.9137031757,0.9628209026,0.9615998218,-0.687751196,-0.3967419026,0.6761034944,0.7555272784,-1.1729554756,0.3015487064,-0.0936398076,-0.7621618207,-1.7125176188,-0.7171234122,0.206161478,-0.6390337765,-1.2791535587,0.8679128262,0.8035985577,0.2619316229,-1.4393273911,1.4849584508,-0.3091107252,-1.0275300886,-1.3798440143,-1.3474928851,0.2853935513,0.6539175425,0.4495766325,-0.169314149,-0.1887818776,-0.3226461689,0.2074150245,-0.6704210823,0.1394726627,-1.0025937004,0.304781832,-1.0389641497,-0.7905086137,1.3855823977,-0.4816929173,0.4833837731,-1.1971182873,-1.3110247996,1.0698014064,1.2796823683,0.3447934877,1.069811586,0.717281073,-0.5740238976,0.5034860405,0.9813748211,-0.8707998908,0.1220852479,0.2736409426,-0.5701581186,-1.8888289053,0.3436260742,-0.9041515888,-0.4511406292,-0.4860733717,-0.9025421678,-1.2207678209,-0.2258471521,1.0142919454,0.3653313269,0.3256847795,0.940060092,0.7314822652,-0.8921594254,0.460990183,-1.3714493075,0.7706818315,-0.1762897956,0.1990675715,-0.9897753034,0.0674305166,0.1538764617,0.7429484894,-0.3565203832,-1.0040210571,0.5286531781,-0.9832065538,0.7473608339,0.870429739,0.0652779858,-0.6699489903,-0.3027898714,-2.0905094745,0.7271752255,0.0098284184,-1.2823126287,-0.1365247548,1.4064115469,0.4199037414,-1.4372989167,-0.6764960579,-0.1037543092,-0.1072924521,-0.860555512,-0.3513564773,1.1539786281,-0.1162715985,-0.4593847473,-0.4691483382,0.3713012757,0.1383423106,-0.5175066126,-0.274810034,0.8090719868,-1.0017730196,0.5331155136,0.5523008848,-1.0705328117,-2.5231784858,0.3153172117,-1.254257582,-0.8068605204,0.9118607817,0.6698923158,0.2463453436,0.957424112,0.1304730747,-0.3388984848,-0.8279341027,1.6179882915,0.0954547397,-0.1146795507,-0.017805954,-0.7681076678,-0.1892181038,-0.6505136598,-0.8745978642,0.3549888679,-0.9036144709,0.9918030366,0.3313825166,0.4892360218,0.7673453211,-0.2414859319,0.2652636986,0.8382239216,-1.4004980974,-0.1215566606,-0.8458745264,-0.0618568668,-0.1688517893,0.4737204755,-0.2954259943,0.5390594749,0.0726897157,0.3443029461,1.3728566576,-0.6712782332,0.9965308142,0.9411539943,-1.6020697052,0.2196574264,1.1673223694,-0.3543938119,0.183099081,0.6377664533,-0.0413148137,0.1098302501,-0.9947397688,-0.604699818,-0.4910139583,0.1900658855,-1.4624452805,0.6944278952,-0.1041426634,0.552855378,-0.0897412339,-0.6810257523,-0.486546697,2.241262953,0.7456587752,-0.0749791599,1.8351126412,-0.9544720136,-0.8591837002,0.2206709387,0.2959268321,0.7928548443,0.661167661,1.5147690151,0.975155867,1.7212197041,0.2162571543,-0.1863001208,-0.8865621007,-0.7687581632,-0.5442836605,-0.2985840552,-0.0751825173,0.2346416111,-0.314491034,-0.9277541289,0.5326319458,-0.4790660901,0.3717997633,-1.0310656422,-0.6188761454,-0.6315372319,0.6597246962,-0.3440878458,0.3506173621,-1.0852124444,-1.070413549,0.2436387575,-0.2602364162,1.2317116621,-1.1075440194,0.1848056676,-0.0974999071,1.2682048578,-0.782244091,0.1695685234,0.7070732467,0.931143961,0.8924378995,-0.7715781876,-1.6910249584,-0.2589898038,0.4812166947,0.4003086609,1.0581307062,0.0502076513,0.7631119134,-0.3169297158,0.1548047807,0.7494882888,0.4025140499,0.2996358083,-0.5701042665,-0.08365019,-1.079813914,-0.1507304636,1.3546698624,0.7493057245,-1.1830980447,-0.8875278808,0.9883351551,2.0224417802,0.3592453187,-0.6675397889,-0.6739278554,0.5058877373,0.1080524806,-0.34137104,0.7320821287,0.5515227762,0.5857641487,-0.1265606723,-0.4206823886,0.4463085871,-0.7066620273,0.0348574451,-0.7819761944,0.192296806,0.6765907419,-0.7502974246,-0.4035422736,-0.1579604827,0.8314082351,0.640839042,0.058691558,-0.0578292288,-0.9944178393,-0.9238952107,0.4039898577,0.3392880764,1.5342288576,0.4709664335,-0.0403221784,-0.3831650359,-0.029456233,-0.9636847838,-1.047752113,0.5896364734,-1.7100083216,0.5179168132,0.4054800817,-0.8951051425,0.1283158016,1.6963217796,0.7695194075,0.5154737024,-0.6362743509,-0.012021873,-0.5703314604,0.6874104567,-0.122251761,0.4917388828,-0.0045847123,0.2255108653,1.0421552312,0.3049141843,0.5463073358,-0.7870212984,-0.9394003164,-0.8988709601,1.8276543283,0.837160107,0.9131589778,0.1622894894,-0.3280737111,1.3804611016,0.959032422,-0.7715766916,-1.3049119276,-0.1156978132,-0.3373717188,0.7624949847,-0.4461097043,-0.0090810192,-0.3392301148,-0.5502622051,-1.3686824278,-0.6319904561,-0.2276151947,0.0275196539,-0.6527171322,1.0226742309,-0.0803749839,0.5489161446,-0.0024555839,0.0472590712,-0.6039343541,0.127254572,-0.8176726937,0.8286123474,-0.2021513918,-2.1527332125,0.4798539479,-1.180070205,-0.3059040387,0.096788363,-0.0374255306,-0.4617634355,0.9595150089,-0.1405480884,-0.6262331386,-0.4460823357,-0.8800567135,0.466274365,1.1548994935,0.2059192404,-0.1982407387,-0.8554693958,-1.0247556778,-0.9049942324,0.1910601014,0.584716172,1.0316629077,0.4749537509,-0.6831222516,0.036613152,0.9651432171,-1.3199117243,0.2284264765,-1.1094280906,0.4278691049,0.74188491,0.7924604749,-0.3493283175,0.881382112,1.3969774794,-0.4550096586,-0.0759261092,-1.6173233028,-0.7484379169,-0.1909987638,-0.6994445342,-0.7802144908,0.5077961946,-0.4330948264,-0.64174306,1.0778308387,0.4446876202,0.6103677947,-0.6160302326,0.6891378769,-0.5582469185,0.0941129445,-0.6987867057,0.6895540632,-1.3885119032,-0.0979060333,0.569754436,-1.4195515667,0.4391475044,1.3086162021,-0.6840404942,-0.7447603273,0.2315519599,-0.4373737363,0.0486800219,0.5544479535,-0.7419919424,1.0577350297,1.3899922922,0.6801530494,0.5896135857,0.0112698994,-1.0842186881,1.0329422265,2.1164054477,0.404990465,1.0332968759,1.1777842947,-1.030957387,-0.4748307776,-0.594811735,-0.1174091318,-0.7302502711,-0.4874784027,1.3384656033,-0.7346557882,0.2324498256,0.4343131314,0.3287988999,-0.3481852415,0.3746953939,-1.0189235194,0.4837240493,0.7125309574,-0.9179871074,0.2700404777,0.4852211108,-1.6837274352,1.1380475481,1.0835149083,-0.3209885032,-1.4139295657,-0.1607392247,0.6125544926,-0.6862263361,-0.0890190882,0.8852662788,1.0471556247,0.1594437588,0.4688036566,-0.0149392158,-0.0560583425,0.8082400306,0.2659291799,-0.8181720544,-0.7656429286,1.8484523676,-1.1738606413,-0.2324037891,0.8422368825,-0.4903055607,-1.3343334896,-1.2763132155,-0.967767072,-0.4976842279,-1.7522664813,-0.6320447618,-0.4522484055,-0.0331845803,-0.047906055,0.9494288071,-0.8636199526,-0.0508755175,-0.2377647549,-0.9590405387,-0.2506137189,-1.5280108183,-0.8558119471,1.2036574534,-1.1345925835,-0.850361747,0.1318937012,0.9386913127,-0.8011022326,-1.0473357964,0.2034188411,0.1705532281,-0.4218976541,0.6690457052,-1.6799287303,-1.090976414,0.0031943514,-0.281255502,-1.1737866333,0.2386130995,-0.8239134169,-1.3963845601,1.2830499857,0.3968815514,0.0955357466,1.4944161682,0.1195211112,-0.3705794159,-0.3477001935,-0.1980761785,1.1875278931,0.3874601086,0.3284039341,0.6973323147,-0.5787657394,1.2057913664,-1.0627089097,-1.0509014889,-0.8940763305,1.2368960918,-0.1199682496,0.7225907894,0.4008463515,-0.7546511894,-0.0639608655,0.2090111669,-1.1269648538,0.1067317834,0.5745342892,-0.7596572205,-1.0720259332,0.6547173631,-1.2289906947,-2.2963979885,0.3856036232,-0.3596117401,-0.878635952,0.2521207722,0.8079442563,0.6138411834,0.7156710794,-1.2387646041,0.6863573546,-0.8190712018,-0.5083365751,0.2886165396,0.105189906,-1.6112021456,0.2308776878,1.13407821,3.4488835014,-0.8669372746,-0.8199579423,0.4948600579,-0.3883142966,-1.0463384965,0.2036779328,0.5203486567,0.8272888422,0.002115568,0.3699285188,-0.3665069923,-0.0008037447,0.6331625325,-0.3295613869,0.0983924655,-1.2544517765,0.005541758,0.9141853432,-0.318840621,-0.665925869,0.1597350947,-0.1243741499,-1.0237793522,1.8651485381,-0.2616643061,-0.1275966237,0.7579454013,-0.7389423726,0.693606419,-0.4664135417,-2.1436587514,0.2686659694,0.6836645601,-0.4520161741,0.2662953713,1.4286660989,0.0943058627,-0.1256887356,-0.5867484427,0.5793312903,0.0869838863,0.5310210029,-0.5889804607,-0.9715327898,0.5432659032,-0.8009711254,0.0822864854,-0.8928062038,-0.5007402061,1.1282883267,0.0238328431,-0.4781067047,1.8165257857,-0.6860361112,0.1053685541,-0.7681607447,0.4463686955,0.2198265686,-0.1664181632,1.0532030175,1.0193550066,-0.8526269757,0.431159314,0.9943660632,-0.3921847591,-1.0571989757,1.8988501356,0.3075956945,-0.4865108874,0.0743890219,-0.4273473402,0.5674632775,-0.1434485732,0.6214302991,1.2300231397,0.7944511629,1.3167225697,-1.1523221747,0.3621539257,-0.0478698185,0.2885417867,-0.6848478948,-0.4212851283,-0.9127966171,-0.4326002441,1.0144572499,0.7625717684,0.4709666759,-0.8749251121,0.02403242,-0.4921690708,0.1910119565,0.2603239131,-0.2799967465,-0.6735929022,-0.3949671285,-1.3894184307,-0.7177462605,-0.2789022582,0.9868702756,-0.7835866039,0.1454229442,2.584636102,-0.7559229893,-0.4573644994,-0.2149956859,-0.534483097,0.6034374539,0.3794098019,0.7304872693,1.2689132337,0.3012710557,0.1118630542,-0.7828060772,-0.8109556572,-0.0100237562,0.1517522615,0.5336852769,-1.523007499,-1.2543096865,0.9312345042,-1.0277365428,-0.6357116064,0.0750390037,-0.7504248679,-0.7667130196,1.2797315408,0.5311600079,-3.2295793821,1.6170695386,0.6916790573,-0.7504405883,-0.8780711403,0.7785041657,-0.3903827705,0.3829298559,-1.3004478543,0.0998475002,-0.3385047206,0.6700309025,0.4464341241,-0.5638742553,0.1726288573,-0.4148305629,0.6342971434,-1.219209549,1.0264961227,0.6424204765,-0.8003917877,-0.8158111041,-0.3654871729,0.3491963184,-1.0221464154,0.2543778009,0.3249403717,-0.3415900602,-0.2726736441,-0.3547675311,-0.2883669058,-0.8750549642,0.3304594433,0.8899023844,-0.1256465944,-1.0939341426,0.1830813674,-1.9136066924,-0.5286330037,-0.4130385237,-0.0575098867,-0.6651126839,0.4000403278,-0.3500089188,0.7578395184,-0.5249083401,-1.5744735137,0.0348818672,-0.0470832732,-0.7780702163,-2.6175226014,-0.7911945075,-1.5456802638,-1.5506228388,-1.1038049627,-0.1453709964,1.3229967528,-1.3454680863,-0.7113286378,0.8073616519,-0.1155404622,-1.0265261885,-1.279867012,0.5769801947,-0.1739745445,-0.7802082057,1.1028486872,0.5938075423,-0.6233898186,-1.0324566809,-1.5188526004,0.9231156747,0.2744477572,0.4848500983,-0.2880971639,0.5542623085,0.5343303924,0.7106014134,-0.62624319,0.9045191807,0.4990852147,0.6673090766,1.3972460714,0.8168469395,0.8308189356,0.0956101749,0.442827842,-0.0802403829,0.5982622907,0.1664287737,-0.3662931633,-0.2881900456,-0.5170756945,0.2569912715,-1.4230222972,0.4792473709,-0.2711940861,-1.0417456093,1.0323494574,-2.2357409327,0.7854728703,0.4235998433,-0.4439045087,-1.3573697068,0.040553963,-0.9151539205,1.2982302856,1.0503975576,-0.0484470581,0.1705191891,-2.1517483039,0.9178743775,0.4923450078,0.228417509,0.5913335871,-0.1611108864,-0.9369976119,-1.3703358627,-0.6541958156,-0.9254937973,0.6558065326,-0.821671732,0.7034230606,-0.6793354273,0.826789196,0.4160765556,-1.3638081671,-0.2213790097,0.9537584591,1.996673603,-0.7958527287,-1.0082211559,-0.6397726919,-0.6783586991,-0.6120132477,-0.6594809418,0.3766714962,0.1616865009,0.3438891868,0.4690169506,0.2531880544,-0.4379236362,-0.6678042641,0.4707093684,1.5711555443,0.6297883723,-1.7712230565,0.3686648559,0.793506921,0.9817599142,-0.6120363895,-0.8145124953,0.0583139768,0.0205495201,-0.7831556892,0.83088324,-0.2428528129,0.8142749439,1.3576170229,1.0886454014,-0.4044972374,-0.1928583423,-0.7293485526,0.0050162986,1.0337771656,-0.7649657888,1.544931241,0.1929945149,0.7794290357,-0.5795428727,0.6466726363,0.9971860618,-0.7118966069,-0.3976629971,-1.5708498651,0.0031784575,-0.8666906883,-0.1622787545,-0.6064012817,-0.2138355004,0.0957155477,0.220866449,0.1982456908,0.103655907,0.4057203068,-0.8203703488,-0.0456644107,0.6462056194,-0.6434789814,-0.8095508265,-0.4028218417,-1.1930319573,-0.1921746563,1.6028879675,0.1158908267,1.1357520529,-0.3656219868,0.7699576138,0.1280029018,-0.5681004296,-0.1450919734,-0.4522149161,0.7512551009,-0.8060898552,-0.6403244902,0.19877561,0.2145078835,-0.5956817644,-0.1148933339,0.601552705,-0.0551303254,-0.5835122504,-0.2320921629,-1.4875583083,-0.8670411086,-0.3069376103,-1.1360703404,-0.8751854882,1.9414297957,-0.9652767625,-0.1647156326,-1.0959068336,1.9811660607,0.4632288402,-0.2336178467,0.1848819019,0.2135302516,0.0559042071,-1.2903603005,-0.1788752457,0.2317781952,-0.2577784443,-1.0991944355,-0.8380929973,1.2799121149,1.0209968614,-0.7287846528,-1.1507548409,-0.8308692476,-0.3298882625,0.5149051253,-0.659013416,-1.6409505066,-1.0337975243,0.9448836128,0.6599876997,0.7574981497,-0.0224745136,1.09833463,0.0000755068,1.1781968417,0.1526265944,0.7596722363,-0.7448827682,-0.7989829583,-2.1531725821,0.6694562384,0.4448077168,0.1703353431,-0.4300016405,0.6322966748,0.3521822436,-0.533944331,0.1753596081,0.3298485141,-0.5673402525,-0.3119779805,0.7285210931,0.9898757737,0.6460795824,0.6389743095,0.7614317029,0.7757332123,0.2977142521,0.1643999288,0.5506721792,-0.1236425062,0.2791216275,-0.6563487462,0.1446720262,0.529478253,1.4117977186,0.1944492651,-0.301027845,-0.0100188894,0.3086012105,0.7580567351,1.0485961983,-0.6260598898,-0.3392910753,0.2379330092,-0.8860073,1.3159113879,-0.0067166661,-0.3991104145,-0.3884539136,-0.5651682855,-0.4781247257,-0.3475423543,-1.7832044232,0.6199403327,-0.4251195345,0.3176720971,0.1457452415,-2.1102082843,-0.6392174079,-1.0611241494,-0.6781741658,-3.037831448,0.7263657118,-1.0542427443,-0.5364503905,-0.4143769454,-0.5145590549,-0.1429615307,0.680931974,0.319363436,0.196148927,-0.4072441739,0.5367443491,0.5336416423,0.37251111,0.8221312078,0.8808571877,-0.1100305411,0.7997362027,0.3877209289,-0.3948150266,-0.4547027998,0.6544192262,0.6107871109,-0.6109644666,0.2070052324,-0.8090045743,-0.1459734999,0.8718134839,0.0593689265,1.3238658277,0.9156219649,0.2784250508,-0.5866923561,-0.7219653873,-1.0452446263,-0.0247669025,-0.764683203,0.736039936,-0.1439523308,0.7278908382,-1.4679153234,-0.0116087035,0.1895569952,1.5508808766,-0.8443840133,-0.1590099011,-0.0372478764,0.5991025817,-0.3108959791,-2.1184239073,-1.6139835484,-0.2707130209,-0.9998596374,-1.6903902591,0.0668245081,0.7536144647,-1.1242770765,-0.8131372773,-1.1714968342,-0.4027070089,-0.9231444601,-2.5821158101,-0.2222710358,-1.0232716195,-0.05242354,0.6229584076,0.1705846245,-0.1348586814,0.5669082242,0.9774303788,-0.7969516399,-0.0395932415,-1.9928866203,-0.5693339986,0.6960120431,-0.1325623492,-0.9932742805,-1.9151662554,0.2279588592,-0.1016060984,0.0911960271,-0.2102366768,1.2044973168,-0.7902739241,-1.7881325897,-0.471253578,-1.2178116722,-0.9493470262,0.5282603894,-0.9923920228,0.094622187,0.6931379305,0.9112268497,0.5939799165,-0.0336852089,0.9789434814,0.3803573626,-1.1606698903,-0.7846955668,-0.3500232627,0.5086071085,-0.9517385353,0.3506735761,0.7234894008,1.7512661427,0.9217001566,-0.4169690459,0.7393186438,-0.3795691874,-0.8810931306,-0.2099603171,0.4438638077,-0.1157719163,1.4565074273,0.2978878816,0.1687417294,-1.0971430366,-0.1680566763,-0.9022402675,-0.34779288,0.8552972988,0.0733849803,-0.886750302,0.7990444595,1.2348555759,-0.4878009828,-0.1886289506,-0.9016076373,-1.044231182,0.5436402554,0.1371136779,-0.080409794,1.09474277,0.1971577158,1.3346765287,-0.0833920713,1.0384308223,-0.3740089987,0.8615615947,-0.5771160194,-0.8231707564,-1.0644609273,0.0361474149,0.3169754984,2.1112820268,0.4789405776,0.0270935139,-0.9575689126,-0.0218099783,1.8027712542,-1.0173742518,-1.1171550618,0.5835922484,-0.8446788665,-0.9139561556,0.7311916985,-0.2291439528,-0.504004114,-1.3870065507,-0.8622869903,-0.3423642342,-0.7590352348,-0.4124749451,-0.2573290644,-0.4856649203,0.0812034557,-0.4702517213,0.2025044215,1.1727970679,-0.9537573823,-0.1904435327,-0.1574156534,-1.5266628162,0.1879190778,0.693580251,0.5498285598,1.1793227861,0.3947159129,0.7315185412,-0.5398911893,-0.1909051216,-0.0070719847,0.8248026202,0.4949616175,0.9600225304,-0.8042996557,0.3779392795,0.6412955821,-0.9345534989,0.9035030026,-0.9207112564,-0.4134474741,0.050835626,0.4514750756,0.5824570118,0.4128295107,1.5805630878,-0.9946083061,1.3988363558,0.851458924,-0.9904826325,-0.0698119769,-1.0180012545,0.8802907418,0.2749035047,-0.2568087032,-0.5775767808,0.6982317874,1.3996385008,-1.0719051567,-0.2520395655,-0.4207223466,-0.3457436075,-0.7567955413,-0.7881995256,-0.7473904949,1.0251712008,0.289810338,-0.6797477567,0.677782549,0.371253757,1.1449599193,-0.8838264564,-0.3478874254,0.4389531035,0.4099783515,0.5432509106,-0.350893821,-0.0460475298,-1.167165099,-0.1717153384,-0.1410047789,-0.6023571486,-0.8200816473,1.0675488024,-0.1863440974,0.2093287752,-0.4780578179,-0.6260945209,-0.1734993426,1.0084659408,0.6933836649,-0.9389634142,-0.5690950435,-0.2751345337,-1.0979688375,0.6285713674,0.1245340685,1.0460260041,0.4295771612,0.6928506344,1.0695117615,0.2534404273,0.6479841382,-0.2705798857,-0.4230692829,-0.0332516551,0.2183165913,-1.5409203411,0.4279843703,0.9803271744,-0.1344521402,0.254275837,-0.303147362,0.1305840785,1.3521004737,-0.1955117646,-0.0855667884,-1.0644382082,-0.7999728093,2.688503762,-0.0744615635,-1.0726936925,-0.9354098291,0.2687274697,-0.745062453,-0.6495358744,-0.7299667922,-1.0633379757,-0.0450493348,1.1598822372,-0.6369430003,-0.1403078325,-0.5095229731,0.3012862598,-0.7703584969,0.4759823904,0.2338721628,-0.6624803494,0.0955144621,1.5075242867,0.3169007623,-0.9490932982,0.5219731888,-0.1247738637,-1.0074186801,-0.0883644448,-0.361103679,-0.0544171862,-0.0604310906,-0.2276992297,-0.6613766754,-0.939959543,0.6206578555,0.3378799461,0.862923254,1.1559074719,0.6273525442,0.222470071,0.9256946871,0.103386334,-1.2583709734,-0.8736023848,-1.2824528313,0.6494881458,0.2600641067,0.1282153515,-0.1974211841,0.1868085901,0.7975633357,-0.7752746913,-0.4218352294,0.3569604854,1.373486315,0.4829925813,0.3395231844,-0.4052064492,-1.0747492026,0.5852636527,0.2334405836,-0.0379717228,0.1053252035,1.0520548279,-0.1936499844,1.2017050856,0.4478036531,0.1348110767,1.0226058905,0.475288123,-0.5118614786,0.5354470451,0.3438470668,-0.1428224376,-0.3723584706,0.7296288275,1.4070525562,-0.699479457,-0.6906206875,0.947099843,0.4705589802,0.4639042391,0.5183346911,-0.6289679093,-0.1067301242,0.1209870336,-0.350195288,0.5458663924,-0.6711176044,-1.0996186069,-1.4179785316,0.7068545247,-1.1549868041,0.7626216252,0.1167604102,-2.1334096354,1.0514523252,0.8135878752,-1.4675500399,-0.8362689692,1.1312675508,0.6290474508,-1.3826727622,0.3986209912,-1.1387080648,-0.1731336682,-0.5441906796,0.3502236534,-1.0029256469,0.7226161699,-0.5368135963,-0.7146739467,-0.6789089698,0.9832721974,1.5611850405,0.4837734987,0.1429934482,0.0201137495,-1.4632144252,0.0959392908,0.038984343,-1.0107269871,-0.6514473372,0.9240851695,1.0458554705,-0.1268880089,-0.8797633179,0.9102006427,1.0946070683,-0.4695159889,-0.4275423375,-0.3049442477,-0.8123020165,0.3253073382,-1.6512569117,-1.7752071536,-0.0148306794,0.1745255335,0.780863655,-1.8608793023
   -0.9284665571,1.4177092611,-0.6026171267,0.1359612239,-0.2018402426,-0.9171571575,-0.047236704,-1.0348417506,-0.7997101198,-1.4441776572,-0.2359575422,-0.7703386798,-1.5899854184,0.2957051337,0.0653735472,-0.4916753418,-0.2621004077,0.6368963012,-1.2829402206,0.7326513827,-0.6138759414,0.6794102654,-1.3384604422,-0.3235908076,0.8881956929,-0.883254668,0.6540146448,0.2219939786,-0.2034185851,0.578322893,0.5986970459,-1.1297303188,0.5784057837,0.4864350017,0.401594683,-0.5158850586,-0.3504245865,-0.920162626,0.1593777947,0.2730123327,-1.2797705616,-1.5963000941,-0.968904316,0.2800746659,0.5235007214,0.5899479904,0.1147118985,0.3644359553,-0.3345482588,-0.1837693685,1.1016381186,1.0685885479,-0.7760464487,-0.6112035669,0.0792361354,1.2669335493,-0.5552092425,-1.3525360806,1.2501153502,-0.8152352706,0.2602676949,-0.1224987399,1.6602857727,-0.3296464146,-0.2491722683,-1.3851587172,-0.1312152409,-0.1180202041,0.7486075094,-0.9147878474,-0.2473895609,0.5376848284,-0.4837428029,-0.8461251035,0.7600301398,-0.4438639798,-0.0237324197,0.2959491685,-0.9577490704,-0.5173366735,-0.1294247564,-0.7624238394,1.0192125109,-0.2618948296,-1.7269747639,0.8259169976,-0.3691564061,-0.5009182561,-0.930056727,-0.0093067688,0.5959630728,-0.2843641248,-0.095473996,0.6300357988,-0.5605596688,0.3002954607,-0.0684315067,-0.2101840387,0.7555700133,0.408833744,-1.3303766336,0.3890886742,1.0592822452,0.7733764537,0.2730943865,0.3967536256,-0.4886127592,-1.7603479323,-0.5805898788,-2.0347635294,0.1563516827,0.4437467973,0.4246037638,0.9089528943,0.1701834632,-0.1158271745,0.0457253364,0.6257493546,-1.262117876,-1.0400276122,0.8926835563,-0.9127944362,-0.0888326531,-0.9817956111,-0.9918590523,-0.2887454128,0.9368526723,0.6702685946,-1.6762029803,0.8546446116,1.48366648,-0.4398255108,0.2755725715,-0.3001165395,-0.9983205685,0.5012680238,-0.8394413731,-0.3717717607,-0.9806570199,0.8615467508,-0.188922316,-0.7915397768,-0.6226795365,-1.2034993557,0.0270795807,0.0413659167,-0.601563512,0.2393461618,-0.2254620114,-0.2025614582,-1.1157552407,-0.0947158934,-1.0417629859,0.132240647,-0.9311169669,0.712841915,0.3441849719,0.4863061947,-0.0525407724,0.6111157865,-2.6806053238,0.0584125545,-0.0707724842,0.9165805118,-0.3527408137,0.1684551717,-0.3953813547,-1.0104492815,0.9874773924,-0.8898098942,-0.7582297876,-0.5822094079,0.1569813103,-0.0173614741,-0.0341801793,0.048725738,-1.0610658331,0.2917791314,-0.7943561179,0.0612480574,-0.0746000109,-0.9424802532,-0.3370511758,-0.2019141361,0.7841506233,-1.2239408924,-2.0010929637,0.1258827279,-0.7357966616,0.2230175227,-0.3316627736,1.235940896,-0.3250354093,-0.1052821641,-0.8640164362,0.4994936776,0.5714015453,0.2093066023,-0.4481706572,0.4631937321,0.5372377645,0.3639124484,-0.411725807,-1.4156926207,-0.7355944086,0.3436598664,0.6889617966,-0.9042716943,0.2998677559,-0.9016066413,1.4382357543,0.1253372308,0.3242413422,0.9618649882,-1.102568857,-1.0652775508,-0.758917534,0.191736172,0.5952910858,-0.941220249,1.332657158,-1.3404829842,-0.8261720559,-1.0033236205,0.7096889636,0.7044831402,-0.0273353804,0.4664115068,-0.2052601977,-0.3997630965,-0.3768169682,0.0056395578,-0.7730014169,-0.8636376865,-0.9793183523,-0.9525744277,-0.4801121635,0.309594767,-0.3392320453,1.4592220328,-0.5926937592,1.242422102,1.1029938101,1.3631136416,0.5426635941,0.1455044329,0.8536519127,-0.6901202414,-2.3434497484,-1.2408872465,0.6574956684,2.1570999083,0.6308899349,-0.2543938464,0.825900128,0.3766012737,1.0012916164,-0.0470921543,-0.4400950014,-0.7566393303,-0.3082292443,0.4811840061,0.8435824573,-0.9596494934,-0.4188736845,-0.3519580052,-1.0708315335,0.6314679666,0.6883097554,0.5044740269,-0.5264691884,-0.0833542321,-0.634399759,-1.1012734372,-0.6587689278,0.5033438578,-0.3502472981,-0.7441870939,1.4818636665,-0.0045342571,0.1612518113,0.2112320183,0.6219068852,-0.565851088,-0.2360874423,-0.1780616484,-0.8399743958,0.3578775317,0.9896127508,0.9173321965,0.2266787228,1.0252450313,-0.6026358749,0.5138088138,-1.0298585735,0.6840202273,-0.402811714,-1.0843012815,0.075593123,-0.3053510181,0.4930698374,-0.0206328766,0.3945979803,1.4594740148,0.3969150656,-0.8149235641,-0.6119501789,-0.5706013761,-0.8765143035,0.6782279489,-0.3706475911,0.1869869572,0.7942626082,-0.8493253878,0.6539678431,0.1719226878,-1.6000403772,-1.0839032163,0.1443713404,-0.3285997022,0.6187224764,-0.5140723869,-1.1115396917,0.8023262727,0.9329519168,0.0622926472,0.6654195183,-0.9890486721,-0.9192874269,-0.1033494756,-1.5853864902,-0.1274407236,0.1801030987,0.5242139053,0.7638101745,-0.0330760173,0.3053703163,0.9424267254,-0.9584502825,0.7682647015,1.1130338811,-0.5472761015,-1.0758418481,-0.7040651226,0.0325356443,1.5564574224,0.0070881411,0.8642095175,-0.9450101977,1.4772662096,-0.6166734819,1.2452008159,0.8789998775,-0.6130991508,0.150690702,0.8902758154,-0.458954851,-0.0909085904,-0.910711633,0.2051859567,-0.2566162298,1.0296674295,-0.9576976381,0.42421637,0.9093465033,1.033417683,0.0280559427,-0.4923150378,0.7721319193,-0.4208198807,-0.7704559988,-0.9601113643,0.1559440295,0.8107916703,0.4495565741,1.2601832027,0.7219798427,0.7867997016,-0.3791501451,1.3809051521,0.6865773425,0.4096709505,-0.335751071,-0.9268675072,-1.1101887192,0.4151567476,1.4507075324,0.3378955836,1.2379004421,-0.0695301407,0.2660909313,-0.6293655378,-0.2973265556,-0.4337102429,-0.950862378,1.4570528213,0.4168217875,0.1734184671,0.5867829168,0.190886839,-0.764440379,0.5155017968,0.2196899195,0.1140334137,0.1724157826,0.8418523346,-0.3621147155,2.5551328783,-0.1168873098,1.0148624639,-0.4474852226,0.2820940771,-0.857995019,0.2603572506,-0.4437647744,0.674271085,0.8843765287,-0.9312872911,2.0308282353,0.4668817607,0.0229994825,-0.80619178,-0.2151359909,-0.971638614,-0.0791552057,1.0869407997,0.4178127725,-0.8299837119,0.0363113947,-1.1242160937,-0.7009883643,0.1777718541,0.898148767,-0.6273723278,0.0084616167,0.597635852,-0.7078086409,-0.6638435065,0.4107075955,0.2205840742,-0.8075181461,0.2697175492,1.4770307346,1.2602428725,2.0314698478,1.1826486007,0.1813011826,-0.2004795478,-0.561223705,0.9378001072,-0.8783416695,-0.7052463129,1.2973031346,-0.6087489749,0.3671372679,-0.3529885994,-0.9753885016,0.5850067714,0.0790696739,0.992770554,-2.1594723584,-2.1422527543,-0.1101480232,0.8131563846,-0.7558234023,1.2507496361,-0.2673591989,-1.2839707576,-0.2176246446,0.7644073122,-0.9883417481,0.5826105446,-0.1592351592,0.3716867014,-0.2977636011,-0.3603754181,0.2125923949,0.5521046284,-0.4922285709,0.9686260918,0.221824723,0.3507253378,-1.0843316881,0.7215577059,-0.8959005737,-1.166972613,0.1224669524,-0.788759942,0.8572707655,0.2175173064,-0.772696287,-0.8393002915,0.4204462029,0.9464670476,2.2838374694,0.1252170668,-0.3839754803,0.5016501698,-0.7813235042,0.1897584421,0.6105794784,0.6051701798,-0.8786837219,0.1709726475,0.5647412198,0.7322097433,-1.8853607154,-0.3621957525,-0.242308369,-0.6335744485,0.4654720358,0.9437823125,-0.5825035388,0.2871298905,-0.5784884668,-0.4293480069,0.5248793071,-0.6717378874,0.359939666,0.5168099579,0.4152767829,-0.1300376729,0.0784457983,-0.4474034324,-1.4199290992,-0.3010488288,-0.9096555399,0.6123797909,-0.6690370208,0.7601274626,1.2265440275,1.2134368915,-0.4097111745,-1.7624180487,-0.2420804383,0.0079100217,0.6530233252,-0.2575135807,-0.1532831622,1.3604261845,-1.2613946483,-0.6411377676,-0.287661494,0.7102526194,0.6340168107,-1.0023497619,-0.2022949244,-0.6717478857,0.2794360219,-1.1020633028,0.6094068257,0.2558869044,0.8462439481,1.1845695528,0.3129801542,-0.2256784619,-0.2014681516,-1.0757309646,0.3432684842,-1.2557455955,-0.5711695767,0.456989666,0.8338938618,-0.5592451412,0.044156878,1.0862499616,-0.376516137,0.1871119108,0.4605367264,0.3899492472,0.131528776,-1.1154051437,-0.9897411153,-2.5184084526,0.0650514054,0.8973546953,0.272250861,-0.2008138696,-0.30625689,0.3915706436,0.0199136222,-0.5881622792,-1.0490300382,-0.2554876233,-0.2779888327,-0.6067335734,0.1123444927,0.7736327002,-0.8440728668,-0.6388592941,0.4360613726,-0.9478779314,0.1741184989,-0.1257431,1.3675387608,0.7025549656,-1.1373812071,-1.2640364458,-0.6831064978,0.6545451786,-0.646428734,0.2059829214,1.2164866186,-0.4264209749,-1.3892256845,0.1819617368,0.1559946796,-1.3187798442,0.6664402725,-1.250158222,-0.6327620114,-0.7720270042,-0.0765438917,0.4260942009,-0.8346306983,0.1904487865,0.2495568965,0.5760341377,0.6458468951,0.163789663,-0.9349973343,0.1861816529,-0.089666427,1.1187916186,0.5486296963,0.3510315935,1.1225007015,-0.7200222686,0.2313075609,-0.8846533704,0.1072280935,0.1859942604,0.5010999446,0.2803652936,-0.2255989643,0.748131096,1.2914166881,-0.1668455723,0.2493717821,-1.3910720964,-0.3876798048,-0.3156392468,-0.7478987465,-0.5977840832,0.4336135093,-1.0137406083,-1.266817274,0.3772879209,0.2164396587,-0.325684041,0.7762497041,-1.018501959,0.4579222182,-1.5071644181,0.1599394525,0.0065738607,-0.9386247731,0.2308654381,-0.7681978811,-1.5511248835,0.749640357,0.3027091061,1.0853331501,0.2238521144,0.3180520153,-0.7031640305,0.4715130682,-0.0238147141,0.3740430057,-0.0449392325,0.9675277926,-1.0309127577,0.7365412049,0.1826683991,-0.5760435865,-0.5822569735,-0.1963610344,0.2098288398,-0.0901533038,-1.7514674447,-0.0193976938,-0.5564350434,0.3391324098,-0.2151955685,-0.4713798707,-0.6717218664,0.0498735102,0.3861257686,1.1863123575,-0.1680482796,-0.1540134704,0.2487887188,-0.1085409474,-1.8228700196,0.3349764308,-0.0457152241,-0.8364620087,-0.0370519973,-0.5513548246,0.1474241234,0.599339303,-0.7433120228,0.3279530045,0.0337251423,-0.0134345025,1.1595097585,-0.5750337619,-1.566956779,-0.5671798008,-1.3421384033,-0.57005236,0.2404494923,-0.5320709041,0.3760562642,-0.7315421912,-1.5878302698,0.8209923536,-0.4679856087,1.8867762894,-0.5728573474,-1.1970327206,-0.350711636,0.0883164303,-0.188138399,-0.1579853962,0.037521769,0.5243222898,1.0399861648,0.8673837861,0.946725183,-0.6294861457,0.9489702456,0.7921502838,-2.3711201636,0.6476075881,0.2866716608,-0.1132619839,0.0173218203,-0.6176782773,1.610683862,-0.9912983431,0.4406704066,-1.6230484583,0.8162531737,0.7583243775,-0.4372612654,-0.853393871,0.7932852005,1.3392815211,-0.1145356499,0.1122656457,0.9502732436,1.2093324601,0.4100665612,0.5891216282,0.3499379789,-1.4096968976,-0.8900732657,-0.416465662,0.7055146836,0.2809291331,-0.6125905076,0.6349361249,0.2575146074,-1.3079874077,0.4270119743,0.1882976012,0.1258974584,-0.9870237648,-0.158454165,0.199437555,-0.6537130065,-0.1632327507,0.6194518281,0.2003322837,-0.072558333,-0.8223288048,1.1793253162,-0.6098757589,0.5663715297,-0.0441664907,0.4560375865,-0.0723356522,-0.3852866136,-1.5304316578,0.0163111374,-1.022903156,-0.5141070989,0.1595078296,0.6171187674,-0.4035225607,0.6581355018,-1.350332541,-0.3054408886,0.8152430487,-0.2458694633,0.4646201294,-0.1970670627,0.3649726486,0.116106104,-0.4696684735,-0.7504003768,0.8017784489,-0.9369761668,-0.8144227356,0.819304633,-0.1632049352,0.6816186954,-0.4729736655,-1.1940005649,0.5849387635,-0.4211838588,0.1708926735,-0.8720667544,-0.107688758,-2.1251627171,0.3165583178,-0.2613800133,0.6245955672,-0.5715872688,0.0528527841,-0.6355276855,0.882246957,0.2219280632,-0.6615775135,0.4921157669,-0.3691843834,-0.9105129135,0.9397844946,1.0478833869,-0.062462012,1.0328901271,-0.2989581326,-0.0847894664,1.4163634546,0.5337171031,-0.6818779475,-0.0384485657,-0.3892160767,-0.1515711472,-0.5934804236,0.8432976036,0.5375700101,1.0543714481,-0.6254383909,0.9628756577,1.677267832,1.4321856908,-0.5275375841,0.3389845451,0.8720506145,0.2190384707,0.352080801,-0.2029814756,0.8869871528,0.0123728718,0.878097945,-0.9288110461,0.6126504088,1.0958586458,-0.1525896296,-1.1126561585,-0.6397453973,0.587179722,-0.6868759569,1.3811724796,-0.1384390015,1.0652229894,0.9491172395,-0.8604662055,-0.7186181078,-1.3251009995,0.5172741596,-0.1503361341,0.8793959911,-0.8227752742,-0.5791266148,-0.9305939411,-0.1445977803,-0.8824326175,-0.0470366354,-0.5439060307,0.4221135572,1.9068962795,0.5246738539,0.8423013889,-0.847156561,-1.3250831337,0.0436353601,-0.2857577497,0.0253486257,1.1058222952,0.2013450765,0.7512995858,0.6078290339,-0.1730520885,-0.1660034294,1.1722174979,0.2744388709,0.8036785654,-1.2535869582,0.5268581136,0.6315445484,-1.102883479,-0.1270365016,-0.9776687341,0.7898628898,-0.5302520235,-0.5447077332,0.8860189625,-1.2066490603,0.9377965864,1.1119671877,0.5716485339,-0.0443264243,0.4555333277,-0.1181760921,0.7252155758,0.8851565452,0.8277958821,1.860287002,-0.8436311876,0.9588896149,-0.3153786564,1.0367016652,0.1767309965,0.7950211253,0.0276710571,0.2086874994,0.0128948601,-0.3782694884,0.01832848,-0.9396605737,-0.8235444223,0.0006047707,-0.5662907462,0.2499463442,-0.1646683668,-0.9204717863,0.1071964912,-0.0805304412,-0.6008632634,0.4426554272,-0.3544101206,-0.0117780561,0.0444063776,-0.4345053003,-1.1089845516,0.5212845364,0.4346586709,-0.1910597354,1.2725105512,1.0366352041,-0.2092989635,0.2176750284,-0.4096716472,-0.7513826643,-0.5741502714,0.9841685626,0.6161881903,0.0843396814,0.7061387491,0.745052024,1.196275414,0.8631274678,-0.5887959774,-0.760491013,-0.0671910912,-0.8961830638,-0.4406397646,-0.5741740864,-0.0297604313,-0.2519566881,0.3782549791,1.0634771422,-0.6593486533,1.3101041204,0.8469010834,-0.4567429238,-0.6413001741,0.3943747143,0.3795130639,0.1664010315,-0.2495658145,-3.1268665602,-0.6170280399,0.7566604462,-2.6575118722,-0.3608202921,0.2891198614,0.0742493311,0.2308833324,-1.1989161774,0.6412954406,-0.405003925,-1.0890844687,-1.4259443353,-0.1892162163,-0.0641755747,-0.3479558248,-0.3194977979,0.4841721101,0.7120770113,0.2320227843,-0.5710771306,0.5869779371,-0.9705653846,0.119685705,0.6757565125,-2.9293368557,1.0539594372,-0.4234450907,1.3315656629,0.2268543048,0.966088788,0.4203983701,-0.5299748784,-0.985227996,-0.6529194327,0.0626048316,0.1926795565,0.6396416969,1.4520540704,-0.1272322537,-1.7947703441,0.9426095652,-0.2584524172,-1.4557999168,-0.5401653803,-0.4000394749,-0.7665684656,2.2167806674,-0.1075292413,0.179790204,-1.0391092793,0.0582459541,-0.7576834062,-0.9794672032,0.9322050105,0.5649660306,-1.0004035312,1.3453274212,-0.8815449939,0.0101397198,0.5812296904,-0.7080429148,-0.6955831596,-0.0019358262,0.485494468,-0.7510984077,0.4872789185,-0.3915356864,-1.729715764,0.2621254574,-0.1450912738,-0.6361380718,0.0150935985,0.1807308351,0.0798348167,-0.2856696437,-0.2876344846,0.8154799459,0.0315363598,0.5881601561,-0.8057477937,0.0736547591,-0.7298768475,0.4550077548,-0.2035983936,0.941992628,-0.7355684305,-0.5046785562,0.3269025509,-0.2471955772,-0.3708041412,0.3090724232,0.1834537382,0.1189889574,-0.5593941676,1.5823775521,-1.03728974,-1.938805122,0.251244098,0.1981974783,0.1849012104,0.3192505089,0.3692206147,-1.3896835971,0.5533531238,0.5615061405,-0.9980525058,1.5045679497,-0.5479301172,-0.6097788448,-0.3056241394,0.8027354148,-0.1296272761,0.1457785366,0.9531947462,0.4471353379,0.7380276788,0.5689311294,0.6982577535,0.5589082713,1.4278119266,-0.6309507666,0.6799667291,0.4787366428,0.7377343068,0.2424063991,-0.8517477817,-0.2407896068,1.8355440879,2.3381315923,-0.413271104,-0.5243971725,1.4694344179,-0.4718501758,-1.4619371103,1.217015939,-0.0353881296,-0.0241479756,-0.3534295316,0.8193851267,0.5391838519,0.3374950943,-0.4321961486,-0.6157564609,0.8803794974,0.3349873881,1.2627828889,-1.2777482846,-0.965192784,-0.8852166418,0.4632821956,-0.7616116946,0.5203696607,-1.524089614,1.7160784403,-0.8409428194,-0.8484007689,-0.1555313068,0.0665663755,-0.4597312198,0.4726199781,-0.1808438263,-1.2920752663,-0.3501937894,0.9275536917,0.6778055555,-0.825610711,-1.1985457141,-0.2751875086,2.0787104936,-0.8630793868,0.8954197841,-0.3869309811,-0.5114335145,-0.4893481172,-0.3227204779,-0.3326944302,0.5887785395,-0.1088067752,0.9061636015,-0.3040846993,0.8962980182,0.4477205833,0.9393730855,-0.4844613822,0.4029528294,-0.4001921816,-0.625997414,1.0318454089,-0.8036251107,0.4442077821,-0.1863494367,-0.7848216174,0.9785032932,0.6024434676,-0.9139353119,1.2339784477,1.3437315837,0.278645549,0.963262496,-0.1944696501,0.3640222388,-0.9053982748,0.4589781506,0.1808698222,-0.9686361004,-0.9543899629,0.8588054541,-1.492344501,0.1548859048,-0.2701994319,0.9756863929,-0.3735225862,1.0579307453,-0.3675637562,-0.4842979527,-1.3906507273,-0.203947047,1.1127867824,0.113437668,-0.0090933855,-0.325872114,0.0817946524,0.9835865246,0.8265212525,0.3358701129,1.3531333329,0.3263478797,-0.2173997937,-0.5697742696,0.639064398,0.0246305383,-1.0685985156,0.9376906358,-0.1011674158,-1.0680882032,0.0248493077,-0.8450834167,-0.0791884475,1.812043884,0.1691265437,0.4461831505,0.7837955559,-0.4836940427,-0.8567443227,0.8422465671,1.3275074528,1.4717353296,0.3790528302,0.9727732741,-0.8338523567,0.1419051137,-0.6707587853,-0.2720133783,0.5828069397,-1.6689831633,-0.8706562617,1.3973076807,-0.6431670302,-1.2116801677,-0.6193552778,-0.7649055383,1.3016037507,-0.5015958132,0.8217520688,1.0560552556,-0.8217992457,0.7089179776,-0.2125205296,0.2626297551,0.1740854687,-0.9288913588,0.9747651,-0.3650950332,1.4296767863,-0.7032598119,0.3114415682,-0.0749194882,-0.1525454663,-0.7374763062,-0.6041992203,-0.745244717,-1.078253051,0.762440442,-0.3946236446,-0.0348773767,1.3274695179,-0.9585900377,-0.0009280062,1.1218990473,1.1973482508,0.1009115713,0.5006888632,0.8573901486,0.3024435919,-0.5996820434,-0.082178147,0.6537464535,-0.4271712144,-0.6942089068,-0.7351426942,0.7031693888,0.7363820581,-0.8711961177,0.6497362735,-0.1527662669,1.0852206127,0.2615145496,-0.4171156571,-0.0517888417,0.2279390364,0.6756035451,0.9740590952,-0.5103093459,0.2931290493,-0.0875120034,-0.2262475395,-0.293798766,0.5029484939,0.5137267791,0.2029248012,-0.5329391006,-0.038960395,-0.5284302098,-0.3319098304,-0.9766484588,-0.0663533086,-0.0386572966,-0.2072579838,0.2077863639,-0.2535785334,-0.1436261055,0.0410112931,1.131051175,-0.6516680851,0.6226823686,-0.4280610515,-0.4784810264,-0.5363400477,-1.2175947411,0.1941216601,1.2268013879,1.068491932,-0.7383140128,0.214646903,0.6236548453,0.6948320587,1.5010783419,-0.5949551748,-0.96843552,-0.9039379351,0.6430782055,0.3946629569,0.482913772,0.6116955288,-0.6816845301,0.0636352379,-0.9716405609,0.5875811296,0.5599650916,-0.5544190056,-0.7851924866,-0.7044564714,-1.1517680148,-0.1580762016,0.9084780845,-1.1657606146,-0.6879018057,-0.4486798908,-0.2078404415,0.9452714389,0.9958488847,-0.7667652622,0.9312986013,0.9900345407,-0.2774683254,-0.484113699,-0.2741881681,1.3263246072,1.5297369331,1.3168263642,0.7388631359,-0.907406224,0.793488286,1.9067954504,1.1521229814,1.2927965798,0.0969836628,-1.0743249675,0.8049566083,0.4372382392,0.5651321725,-0.6041573594,1.8148856951,1.9162743435,-0.5957576593,-0.5285280976,0.3478563426,-0.8824546474,-0.5236194522,1.1806936347,0.4638028706,0.2775247197,0.9267055013,0.9399811603,1.1632685035,-0.0526573498,-1.0160935225,0.1907818515,1.7309122128,-0.649925656,-0.1847919767,-0.0920405225,-0.5840062854,-0.5792279105,-0.2369852376,0.1046155208,0.017137375,-0.2134937659,-1.1852609417,0.0421504814,0.1321399227,-0.2643640309,-1.3310441074,0.2863308312,-0.0221710934,-0.4621581936,0.345275284,-1.191594793,0.632321901,-1.6346446766,0.5302666329,-0.7835403433,-0.3580607796,-0.808419329,0.2942930894,-0.2088429159,0.438117107,-1.112967672,-0.424147279,0.2749702398,1.4029392851,-0.2407272231,0.1244005884,-0.6195408896,0.9721700229,0.1759877855,1.3851762381,0.4396539475,-2.1018309234,1.2203574873,-1.0214427811,-0.3451553237,-0.419344151,-0.3650985804,-0.133003128,-0.3976049475,-0.0608582649,-0.1700231165,1.3606160824,0.5905486932,-0.7040198063,0.5892160722,0.0896921045,-0.6396779759,0.2613361011,1.6733029151,-0.0204411528,0.7269787348,0.8341669631,0.8575343231,-0.4114394029,-1.1555130574,-0.4207473456,0.8853633689,-0.5865131142,0.8258213014,-0.8219287491,-0.0835526557,1.1576038121,0.7314307814,0.2445118038,3.3608300743,0.645485612,-0.1385519973,0.8596463489,0.2447867656,0.6539000395,-0.6138257313,-1.4198060509,-0.3559383867,-0.2999715696,0.1612654705,-0.2202086461,-0.837617595,-1.0391090316,0.4680033471,0.7412226102,-0.7299893725,-0.2496991672,1.9416525456,0.5258335756,0.3686737012,0.0048598264,0.1057727731,-1.2601198877,0.1025819922,0.711971671,0.313424943,0.2775877467,-0.3062294081,-0.6974028745,1.1979767574,1.0411416222,-1.4039342594,-0.6727156062,0.9078017793,-0.8921759472,0.9366519249,0.1590658314,0.2676056369,-1.4201410301,-0.4375682068,-0.8941936325,0.6617571868,-0.5073529293,-0.5072807863,0.7290544296,0.894414832,0.5880418856,0.2622991668,-0.1456921132,-0.2435508196,1.2933020412,0.1877240482,-0.1590525933,0.408392866,1.0024696987,1.0484971022,-0.8748243186,-1.0518309218,0.7684656546,1.0390533729,-0.7779348243,1.720407943,-0.2154757,-0.8424234277,-0.2330822862,-1.3239586782,1.0994171389,0.4571276721,-0.6112652543,1.0731102587,-0.5125477028,-0.9314346215,-1.1371897638,0.0286063951,-0.763302563,-0.5527249906,-0.5373422268,0.261969864,-0.0857823525,-0.3423977303,1.7850052763,-0.7270177082,0.4418752305,0.3428353092,-1.4499905867,0.8602284984,-0.2110893596,-0.1042463414,-0.0152429078,1.2553384029,-0.3774312347,-0.1900616072,0.4667465458,-1.8135791068,-0.755965329,-0.3712482129,-1.0157759329,1.1868865692,1.5186851478,-1.1300817995,-0.0022462227,-0.4374437278,0.9719782986,1.251682917,0.7154943598,0.2716481303,0.5449886758,-0.4143643027,-0.0007353233,0.7085009645,0.321504181,-0.9672451763,0.1686367012,-0.8620086065,1.3143817509,-1.4109943642,0.5373511676,0.9009695681,-0.1009854771,-0.170068303,1.2365260683,0.2433096774,-0.6080802278,-1.0957998314,-1.1508692196,-0.8154938258,1.0607485532,0.8749244482,-0.4310673126,-1.4588941453,-0.8152905127,-0.3527064263,0.2214391479,-0.4377070943,0.7656021832,0.3408591676,-0.3286614129,-1.7010944712,0.1280930974,0.1160983517,0.0787356746,0.4371501588,-0.6893470261,-0.2462150392,-0.1845741427,-0.9164132612,-0.9593079865,-0.2487870694,-0.5275505197,0.4072238365,-0.8638205304,0.3359215908,1.0380279373,-1.6216678693,-1.5633178409,-0.7172064527,0.3343718087,0.7637017798,-0.2031627784,1.4602337451,-1.0998070167,0.7456674403,-0.8825461134,-0.2151277761,-0.2226586692,-1.1317428724,0.8525127449,-1.0631882276,-0.0964135119,0.3889604959,-0.2321958243,0.6067006085,-1.0002726041,-0.0123456825,-0.0573797081,0.47463276,0.1294170384,-0.0319458358,1.0638915194,0.5481896957,0.2446524319,-0.8969613035,0.3451790345,0.4010880579,0.4031315812,0.3516863485,0.5460756684,-0.0001611501,-1.608436599,-0.7789481962,0.4146247997,-0.8457352265,0.890823781,0.6336581044,-0.5401477385,-0.1505808124,0.4204142898,0.982561126,-1.1808831781,-0.3782657369,-0.1840561647,0.5816716473,0.0266964884,-0.1316966983,0.5276353837,0.2918990229,-0.0596823854,0.6872439792,-0.4982455273,-1.8604157714,-0.6201338974,2.4522112851,1.3909886791,1.3325218655,0.7074817295,-0.3811671943,0.8893221402,-0.4293902366,-0.560933725,-0.3105207566,1.1329539041,0.8147906038,-0.6333852214,-0.1588749256,-0.4875007028,-0.0122837529,0.8716170805,-0.8918498301,1.2200741875,-0.0391817723,-0.3977169447,-1.6500060568,-1.0195340403,-0.6874833626,0.1267927112,-0.3372953041,0.3072049238,1.8732739491,1.0311132707,-0.1885332281,0.0580268827,-0.4646486001,0.7369189472,0.1252738001,-0.3517308029,-0.2418223015,1.2040910068,0.3651970133,-1.0012101291,0.3247336041,0.135080839,-1.6699048571,0.9562199861,0.6453178151,0.6962018171,-0.840493778,0.6970103604,-0.3215317335,0.5798099804,0.0722053172,2.6726208933,0.1198090922,-0.7941050612,0.8037669436,1.4559461219,0.9544348753,0.4822285634,-0.092806524,-0.2023919996,-0.8876316967,-1.0776200375,0.3285720179,0.9789588383,0.5380978239,1.2318171578,0.839363989,0.4291232209,-0.4507610142,-0.1513657701,0.1609751228,-0.7661204299,0.9721808095,-0.7928417889,-0.2008842003,1.6737344898,0.416817779,0.6272962108,-1.1905269549,0.7830822793,1.4400295966,1.4968073893,0.8361172209,-0.1577603067,-0.9683744729,-0.9490345272,0.0589211508,0.3963211133,0.9369912951,2.0057766562,1.1721262436,-0.7981917464,-1.0211872765,0.4331146313,-0.2483771746,-0.5863623478,0.9593216251,0.6884445025,-0.0259172043,-0.3909205292,-0.0112009162,0.9760528123,0.821030134,0.8204965864,1.3262816696,-0.5944560622,-0.1348813903,-0.6473551141,-0.0706317377,0.95681637,1.8041471286,0.8080178843,-1.0177324658,0.9637942191,-0.8474450106,-0.2306941878,-0.2739590093,0.782040187,0.4782883846,1.1030015517,-0.6219395807,-0.3531786123,-0.9533425115,1.6801627969,-0.0688990239,-0.1556331153,-0.0495507029,0.1729717368,0.6242292215,0.2007112196,-0.0513840812,-0.1848324476,-0.7402173108,0.3074142845,0.6243440328,0.6939335076,-0.164561367,1.6400871829,-0.3011362002,0.8753616521,0.5018739307,-0.12612025,1.6945224698,0.4014593644,0.8425166346,-0.4702644831,-0.2043946907,0.1583987787,0.61908769,-0.1373203144,1.0999563644,-0.4772955093,0.4788281543,0.1425473493,0.6683208314,0.4753667481,0.609890055,-0.1559554185,-0.9838032378,-0.810160795,0.5620252772,1.1597864556,0.8171358327,0.2011780882,0.7771341217,0.7929519753,-0.6260150292,-0.2713736395,0.6142973103,0.0258306351,-0.6431947879,1.225186423,-0.7207325544,0.1983486368,0.6494202525,0.8146255516,0.6838465366,-0.1678823263,-0.7401521299,-0.8838447709,-0.0935152474,-0.3182266311,0.324481268,-0.584360863,-0.3558523616,1.1046923443,0.8933587712,0.2684251843,-0.3716176121,0.5106613617,0.0066921912,0.1154206306,-0.0898058133,0.8186064717,-0.4671709332,0.4252816569,0.982451841,0.2649038439,-0.4319793646,-0.3927887763,0.5116110539,-0.2560936408,0.6135984539,-1.513118837,-0.6498178518,0.6079290846,-0.6773838899,0.1001196263,-0.16638282,-1.4285918597,-1.5779568884,1.2130155642,1.0775389396,-0.9030654268,-0.2003518065,-0.0596866459,-0.1638413101,-0.1011765161,-2.3306992615,1.1605552353,0.6248153334,1.2625540453,-1.1115006171,0.2928039543,1.1023500357,-1.4048102557,-0.1311851755,-1.5714174404,-0.6439887277,0.3068657653,-1.7634241353,-0.0070965875,-0.4875972441,0.5991308257,-0.8979233677,-1.7758323373,1.1265281265,0.2597563069,0.2803395643,-0.7708503715,0.4410245079,-0.9437114886,0.1963133164,-0.4726942615,-1.0480643396,0.2690145277,-0.7016007887,-0.5235250425,-0.5679848082,-2.0172364594,0.5509117906,0.9436431794,0.5531222553,0.845085381,-0.3074403216,-0.7885917102,0.7281509141,0.84700772,-0.5773159777,0.6312840537,0.475551061,0.6383961245,1.47363398,0.6113208583,0.4365872197,0.8644951263,-1.4794181099,0.6082797098,-1.4412601331,0.44932367,-0.1421487435,-1.8337744171,0.7772416994,-0.4281440374,0.3964514058,0.3184855468,-0.6824281461,-0.4651114468,-0.1755877517,0.3665712726,0.5794241812,0.1594113368,-1.1721833161,-0.2652625646,0.0564524624,0.2526847262,1.2896533274,-0.9426331933,-0.9083256797,-0.4737524883,-1.1815609787,-0.3445003629,1.3481957,0.644831446,-0.4814496053,-0.9772567617,0.216905723,-0.5451146584,-1.0914515795,1.1881407997,-1.19567332,-0.8481293691,0.5263145438,-0.7791996838,-0.4199392892,0.4765660815,-2.6801265387,-0.1097251979,0.2478413759,0.5092485634,0.4100593735,-0.0292237268,-0.928980937,-0.5082576593,-0.4329077713,-1.2871334538,-3.8688939811,0.974501671,-0.4744823485,-0.3898740213,-0.7313607215,0.9602294928,0.7883177731,-0.5713422112,-2.5421802327,-0.1805021319,-0.2055003355,-0.6315153134,-0.2986276302,-0.7171119649,0.3334338863,-1.0903275115,-0.2574796498,2.3704991353,0.0874879435,-0.0892484089,0.5158552236,0.2955370467,0.3639463219,-0.2757414614,-0.375622565,-0.757379836,-0.4767110277,-0.5273856056,0.355973976,-0.5105255342,0.8704953565,1.0536595942,-0.3342358619,0.5780350799,0.3928779807,0.2545653003,-0.1841891083,0.3749929255,0.3920851044,0.7997139843,0.5083530988,-0.7793148528,-0.3874460504,0.6298455813,0.719446174,0.7183319191,-1.3127991783,-0.6685965269,-0.3824234347,-1.0333755937,1.7846115095,-0.663255085,1.2360261525,0.3224361443,-0.4731139945,-0.0148293109
